-1.335906147956848144531250 -1.412982106208801269531250 -0.793817520141601562500000 2.701991081237792968750000 3.522766828536987304687500 1.287047624588012695312500 -0.410095036029815673828125 -1.223670363426208496093750 -3.020864725112915039062500 -2.737023353576660156250000 0.221436545252799987792969 5.999513626098632812500000 7.241443157196044921875000 1.668853998184204101562500 -3.010330200195312500000000 -3.621017456054687500000000 -1.226735115051269531250000 -0.439952462911605834960938 0.274255663156509399414062 2.847790956497192382812500 3.489111900329589843750000 2.075860500335693359375000 -1.348132014274597167968750 -1.333495855331420898437500 -1.323378920555114746093750 -2.902868747711181640625000 -4.803517341613769531250000 -5.292909145355224609375000 -5.458585262298583984375000 -4.637395858764648437500000 -3.193613529205322265625000 -1.410183072090148925781250 0.265502542257308959960938 -0.200499206781387329101562 0.709782600402832031250000 1.708420395851135253906250 2.053868770599365234375000 2.287932395935058593750000 1.448383569717407226562500 1.592072129249572753906250 0.404324084520339965820312 1.477774381637573242187500 2.650358676910400390625000 3.270961046218872070312500 3.861541509628295898437500 3.352649927139282226562500 2.122424364089965820312500 1.250706315040588378906250 3.547862529754638671875000 2.352774143218994140625000 -0.768727362155914306640625 -3.346307277679443359375000 -4.192602157592773437500000 -0.301026374101638793945312 1.650607466697692871093750 2.948392629623413085937500 2.184994220733642578125000 -0.632072627544403076171875 -4.607027053833007812500000 -6.256866455078125000000000 -7.176796913146972656250000 -3.411100864410400390625000 -0.842359423637390136718750 1.045644521713256835937500 3.551509618759155273437500 2.781457424163818359375000 0.808841466903686523437500 0.921960949897766113281250 -0.569823622703552246093750 0.472508400678634643554688 2.480770349502563476562500 2.909601926803588867187500 3.492855310440063476562500 3.796878337860107421875000 2.786307096481323242187500 0.166678398847579956054688 -2.108099460601806640625000 -2.443156719207763671875000 -2.037568569183349609375000 -1.017668604850769042968750 4.268082618713378906250000 4.438324928283691406250000 3.512430667877197265625000 1.502861857414245605468750 -1.977864146232604980468750 -4.433814048767089843750000 -4.474267005920410156250000 -3.773891925811767578125000 -0.104804120957851409912109 1.488570094108581542968750 1.587115764617919921875000 2.336884498596191406250000 -0.027351187542080879211426 -1.734254956245422363281250 -2.519373178482055664062500 -3.011557102203369140625000 0.084897764027118682861328 -0.184087529778480529785156 -0.375713616609573364257812 -0.526586234569549560546875 -0.418818652629852294921875 -0.513494431972503662109375 -0.434754937887191772460938 -0.413319408893585205078125 0.062491536140441894531250 0.168210104107856750488281 -0.131856724619865417480469 -0.343933701515197753906250 0.016736701130867004394531 -0.277873158454895019531250 -0.134931504726409912109375 -0.051421832293272018432617 0.058114498853683471679688 0.283546864986419677734375 0.009854983538389205932617 -0.082015872001647949218750 0.142739251255989074707031 -0.201780810952186584472656 0.033787976950407028198242 0.081317462027072906494141 0.017587525770068168640137 0.070341072976589202880859 -0.197592958807945251464844 0.053822461515665054321289 0.039549645036458969116211 0.053480792790651321411133 -0.126125693321228027343750 0.103281915187835693359375 0.178871482610702514648438 0.127651765942573547363281 0.055275153368711471557617 -0.264789670705795288085938 0.223644584417343139648438 0.040896005928516387939453 0.114960640668869018554688 0.027542987838387489318848 0.402405679225921630859375 -0.076152451336383819580078 0.218625932931900024414062 0.155094504356384277343750 0.031604666262865066528320 0.013637449592351913452148 0.415994614362716674804688 0.065113380551338195800781 0.935190916061401367187500 1.335341453552246093750000 -1.118027210235595703125000 1.458601355552673339843750 -2.085758209228515625000000 -8.453019142150878906250000 -4.304933547973632812500000 -1.705130219459533691406250 5.029526233673095703125000 2.394754171371459960937500 1.137184739112854003906250 1.052609682083129882812500 -0.115723527967929840087891 -8.059970855712890625000000 -5.618800640106201171875000 -1.344665169715881347656250 1.499190092086791992187500 -0.254196733236312866210938 -0.240751236677169799804688 2.997632265090942382812500 1.720860123634338378906250 -5.034992218017578125000000 -3.271780014038085937500000 -5.033805847167968750000000 -1.755460262298583984375000 -2.230667352676391601562500 -2.876120090484619140625000 -1.243057608604431152343750 0.810365617275238037109375 2.304114818572998046875000 3.132095336914062500000000 2.094056844711303710937500 -3.435943603515625000000000 -4.237782001495361328125000 -4.975047588348388671875000 -2.615247726440429687500000 1.103970170021057128906250 3.482304573059082031250000 5.380853176116943359375000 4.815800189971923828125000 -2.301949977874755859375000 -2.210281848907470703125000 -1.826957106590270996093750 -1.048857808113098144531250 1.587294101715087890625000 2.246018648147583007812500 2.041771411895751953125000 1.213432550430297851562500 
3.778040885925292968750000 4.150723934173583984375000 3.659313201904296875000000 2.719333410263061523437500 0.079474784433841705322266 0.155214905738830566406250 -0.132345795631408691406250 0.351262032985687255859375 
2.742090463638305664062500 4.714111804962158203125000 3.465279102325439453125000 7.158415794372558593750000 0.029473654925823211669922 0.013014734722673892974854 1.352802276611328125000000 8.329167366027832031250000 
-3.462296009063720703125000 -0.147623270750045776367188 -1.052161216735839843750000 -0.224828749895095825195312 -0.513147771358489990234375 -0.247960880398750305175781 1.708857536315917968750000 -0.245094150304794311523438 
6.920983314514160156250000 3.955657243728637695312500 2.087890625000000000000000 2.591236591339111328125000 -0.942190647125244140625000 0.719980478286743164062500 -8.827478408813476562500000 0.119635909795761108398438 
7.663461685180664062500000 6.513318538665771484375000 4.722504138946533203125000 7.662395000457763671875000 0.573901653289794921875000 0.165465205907821655273438 46.754505157470703125000000 8.126358985900878906250000 

1.269817590713500976562500 4.761137485504150390625000 -0.733493804931640625000000 -0.312705844640731811523438 1.554716229438781738281250 -3.439635276794433593750000 -0.778193593025207519531250 2.373240709304809570312500 -0.164376795291900634765625 4.026027202606201171875000 1.420189619064331054687500 -4.702248573303222656250000 -2.177318334579467773437500 0.344993650913238525390625 0.108150884509086608886719 4.137602329254150390625000 -0.137375473976135253906250 -4.912267684936523437500000 -0.177338466048240661621094 0.239728197455406188964844 -2.586489439010620117187500 -0.798311412334442138671875 2.162506580352783203125000 0.898429036140441894531250 -2.078666448593139648437500 0.513766467571258544921875 1.499109506607055664062500 1.900375723838806152343750 -0.634868323802947998046875 1.232422232627868652343750 1.320835351943969726562500 1.819911837577819824218750 3.749400377273559570312500 -0.169763535261154174804688 2.449647426605224609375000 6.146718502044677734375000 -0.002684146864339709281921 -0.107241362333297729492188 0.281581968069076538085938 0.165595188736915588378906 0.205439642071723937988281 0.188803493976593017578125 0.332997739315032958984375 0.189303517341613769531250 0.193731099367141723632812 0.023949794471263885498047 0.175704017281532287597656 0.020598998293280601501465 0.163552194833755493164062 0.194902181625366210937500 0.100479327142238616943359 0.089329399168491363525391 0.129192113876342773437500 0.014626346528530120849609 -5.397063255310058593750000 -0.742518961429595947265625 0.438376784324645996093750 -1.048971295356750488281250 5.270503044128417968750000 6.321223735809326171875000 -0.361438423395156860351562 6.160597324371337890625000 7.757825374603271484375000 -0.446177482604980468750000 0.019992029294371604919434 -8.879108428955078125000000 -2.678849697113037109375000 -1.596510648727416992187500 -0.794120192527770996093750 -1.182598352432250976562500 1.784062981605529785156250 -4.118821144104003906250000 6.121304035186767578125000 0.826424837112426757812500 -1.929225444793701171875000 -0.569997668266296386718750 0.296967566013336181640625 -0.526238977909088134765625 -6.265157699584960937500000 -0.551901638507843017578125 2.016285181045532226562500 1.950505614280700683593750 0.230801314115524291992188 -1.900929689407348632812500 -5.700932025909423828125000 5.175363540649414062500000 0.478809356689453125000000 -2.237107276916503906250000 -0.367912799119949340820312 0.727654278278350830078125 -1.633276939392089843750000 2.326787233352661132812500 0.254107385873794555664062 -1.167251348495483398437500 -2.640257120132446289062500 1.375406384468078613281250 1.868874192237854003906250 -1.361528158187866210937500 -3.354728937149047851562500 -0.551984965801239013671875 6.867720603942871093750000 -1.527682900428771972656250 -1.198470830917358398437500 -1.474587678909301757812500 2.783853769302368164062500 1.474472284317016601562500 -5.943390846252441406250000 -1.435238718986511230468750 -0.732284128665924072265625 -0.041847553104162216186523 -0.307758688926696777343750 -0.503780007362365722656250 -0.275768160820007324218750 -0.228217706084251403808594 -0.158947989344596862792969 -0.580169498920440673828125 -0.000194882493815384805202 -0.111414693295955657958984 -0.064308740198612213134766 0.001305291429162025451660 0.087929181754589080810547 0.024570904672145843505859 0.034846257418394088745117 0.022023443132638931274414 0.044207103550434112548828 0.042035654187202453613281 -4.018954753875732421875000 0.799266576766967773437500 -1.066318392753601074218750 -1.023742079734802246093750 1.253885149955749511718750 0.623943150043487548828125 2.757818222045898437500000 1.888530492782592773437500 0.299784421920776367187500 0.513950884342193603515625 -8.907522201538085937500000 0.168091714382171630859375 -1.722025275230407714843750 2.353841304779052734375000 0.181022301316261291503906 1.620189189910888671875000 4.962353706359863281250000 -0.689518511295318603515625 -4.578811645507812500000000 -2.135619163513183593750000 -5.844622135162353515625000 -4.370683193206787109375000 -6.786032199859619140625000 -4.574586391448974609375000 -5.396359443664550781250000 -2.368968009948730468750000 6.038373470306396484375000 2.090589284896850585937500 -5.280514717102050781250000 -0.807269215583801269531250 1.757591724395751953125000 0.747922837734222412109375 -0.035419374704360961914062 1.621816158294677734375000 0.581548810005187988281250 2.938525199890136718750000 -0.615569412708282470703125 -8.934383392333984375000000 -2.644994020462036132812500 2.058894634246826171875000 2.063339710235595703125000 0.956270515918731689453125 -3.471395492553710937500000 -2.488462686538696289062500 2.372818946838378906250000 0.460994094610214233398438 -8.698094367980957031250000 -5.681181430816650390625000 -0.282673984766006469726562 1.356807827949523925781250 2.055656433105468750000000 -3.758129358291625976562500 -1.938543081283569335937500 -0.663959920406341552734375 0.132463872432708740234375 0.045597288757562637329102 0.037292856723070144653320 0.282163381576538085937500 0.160304144024848937988281 0.205633446574211120605469 0.227732419967651367187500 0.217510253190994262695312 0.470311045646667480468750 -0.216789171099662780761719 -0.039511904120445251464844 -0.158893063664436340332031 -0.030694145709276199340820 0.095016203820705413818359 0.052068542689085006713867 -0.063316345214843750000000 -0.015942435711622238159180 -0.143109649419784545898438 -0.239089325070381164550781 0.197362154722213745117188 0.848421990871429443359375 -2.318098545074462890625000 -2.294358253479003906250000 -0.495468556880950927734375 -2.128941535949707031250000 -2.519716978073120117187500 -1.006994724273681640625000 -6.059661865234375000000000 -6.394611835479736328125000 0.520493865013122558593750 0.455441147089004516601562 -1.880932450294494628906250 -2.509866237640380859375000 -0.988453984260559082031250 2.583423137664794921875000 3.850056648254394531250000 2.272521018981933593750000 -2.746990203857421875000000 2.422559022903442382812500 1.066095829010009765625000 -0.057812009006738662719727 1.706804871559143066406250 -0.564284980297088623046875 -2.520211219787597656250000 -2.867598533630371093750000 1.608927607536315917968750 -2.556386470794677734375000 -1.465259790420532226562500 0.937559366226196289062500 -15.843007087707519531250000 -5.894175052642822265625000 2.235646724700927734375000 -3.612756729125976562500000 -6.099009513854980468750000 0.769174337387084960937500 -6.199919700622558593750000 0.488265156745910644531250 4.421747684478759765625000 -9.286800384521484375000000 -4.387404441833496093750000 5.065724849700927734375000 1.641289472579956054687500 3.851343154907226562500000 2.288091897964477539062500 2.851840257644653320312500 1.244325280189514160156250 -1.708948731422424316406250 -8.150345802307128906250000 -2.425733327865600585937500 1.233600378036499023437500 -2.583004713058471679687500 1.157863616943359375000000 0.200831115245819091796875 0.166693210601806640625000 0.194780752062797546386719 0.264924079179763793945312 0.117943882942199707031250 0.298567891120910644531250 0.206682115793228149414062 0.318071037530899047851562 0.339407175779342651367188 -0.147455438971519470214844 -0.151888564229011535644531 -0.072618499398231506347656 0.009738128632307052612305 -0.037219587713479995727539 -0.039902836084365844726562 -0.130563318729400634765625 -0.076633751392364501953125 -0.106966592371463775634766 -4.484956741333007812500000 -3.114751338958740234375000 -0.308824568986892700195312 -2.048016071319580078125000 -0.455913603305816650390625 2.716256380081176757812500 0.747303307056427001953125 0.216680213809013366699219 3.273528814315795898437500 -1.683998942375183105468750 -5.228847980499267578125000 -4.159610748291015625000000 1.657366991043090820312500 -2.284281730651855468750000 -7.641009807586669921875000 2.607959508895874023437500 2.695426225662231445312500 1.910661935806274414062500 1.204441785812377929687500 4.815788745880126953125000 -3.885154008865356445312500 0.647163927555084228515625 3.283201217651367187500000 -1.870501399040222167968750 0.099138423800468444824219 -2.191490650177001953125000 4.263998508453369140625000 0.709638059139251708984375 5.609232902526855468750000 2.823962450027465820312500 4.612546920776367187500000 0.905460953712463378906250 -0.934077024459838867187500 2.341351509094238281250000 -2.861238479614257812500000 -2.125489473342895507812500 0.235094130039215087890625 -0.176742598414421081542969 -1.295184016227722167968750 1.242091298103332519531250 -3.707973718643188476562500 0.263635188341140747070312 -2.348066568374633789062500 -0.392176210880279541015625 4.951305389404296875000000 -1.259791135787963867187500 3.577468872070312500000000 1.399916768074035644531250 -1.893717050552368164062500 0.925439119338989257812500 0.791168153285980224609375 -5.972505092620849609375000 -1.576526403427124023437500 -0.827696204185485839843750 0.024957936257123947143555 -0.007576763164252042770386 0.073368877172470092773438 -0.081004850566387176513672 -0.312336355447769165039062 -0.111011505126953125000000 0.075655676424503326416016 -0.180676013231277465820312 0.053959190845489501953125 -0.164128780364990234375000 -0.206476971507072448730469 -0.201300784945487976074219 -0.136253744363784790039062 -0.161508619785308837890625 -0.141169816255569458007812 -0.036099702119827270507812 -0.176301136612892150878906 -0.118246808648109436035156 -3.108912229537963867187500 -3.308481693267822265625000 -0.815716326236724853515625 -4.094017982482910156250000 -4.690980434417724609375000 -0.376382291316986083984375 -4.188524723052978515625000 -4.264822006225585937500000 1.354834198951721191406250 -1.836280584335327148437500 1.028920769691467285156250 -5.127662658691406250000000 4.324368000030517578125000 -4.403332233428955078125000 0.067476697266101837158203 -1.018496870994567871093750 -8.210442543029785156250000 2.945991992950439453125000 -0.017088543623685836791992 0.265921026468276977539062 2.660199642181396484375000 -0.163317024707794189453125 1.109380602836608886718750 1.095464587211608886718750 0.608853876590728759765625 3.204980850219726562500000 0.123179577291011810302734 -2.972440481185913085937500 -1.212522983551025390625000 2.366044044494628906250000 -5.319190979003906250000000 -0.737920522689819335937500 5.387999534606933593750000 -2.324449062347412109375000 -0.404063105583190917968750 1.464219689369201660156250 -1.264471292495727539062500 -1.907926082611083984375000 -3.470888853073120117187500 -0.359361857175827026367188 -1.123312473297119140625000 -3.408530473709106445312500 0.682076454162597656250000 0.106221593916416168212891 1.415719866752624511718750 -6.457377433776855468750000 -8.791107177734375000000000 -3.849789857864379882812500 -6.239140987396240234375000 -6.085873603820800781250000 -0.081058800220489501953125 2.421994686126708984375000 2.039669036865234375000000 3.072704553604125976562500 0.271834880113601684570312 -0.016197245568037033081055 0.080150447785854339599609 0.174455538392066955566406 0.113912433385848999023438 -0.119441702961921691894531 -0.069851592183113098144531 0.056669738143682479858398 -0.088964872062206268310547 -0.106251873075962066650391 -0.060274116694927215576172 -0.164093807339668273925781 -0.103654518723487854003906 -0.053256463259458541870117 -0.089824303984642028808594 0.071024946868419647216797 0.128199428319931030273438 0.018354756757616996765137 -2.264965534210205078125000 -2.448777914047241210937500 -3.094935894012451171875000 0.871219277381896972656250 1.705514311790466308593750 0.441344082355499267578125 1.463364601135253906250000 2.888910293579101562500000 3.165783643722534179687500 0.406406313180923461914062 4.011606216430664062500000 2.998223066329956054687500 0.635107815265655517578125 0.695923686027526855468750 2.975499629974365234375000 -0.515121698379516601562500 -3.485482454299926757812500 -10.149552345275878906250000 1.927281856536865234375000 5.373709678649902343750000 4.555494785308837890625000 -8.029101371765136718750000 -6.602759838104248046875000 -1.148797988891601562500000 -2.407432556152343750000000 -3.334918022155761718750000 -0.462218642234802246093750 -0.752153158187866210937500 1.133143305778503417968750 -0.336571633815765380859375 1.541327595710754394531250 2.516680955886840820312500 -0.469350695610046386718750 5.685067653656005859375000 8.194401741027832031250000 6.620120048522949218750000 0.925676524639129638671875 5.206000328063964843750000 5.581983566284179687500000 1.547020077705383300781250 5.275454998016357421875000 4.667646884918212890625000 -6.725146770477294921875000 0.745120048522949218750000 1.104873180389404296875000 0.792560636997222900390625 2.929299116134643554687500 1.974775910377502441406250 -0.326181232929229736328125 -0.030670870095491409301758 -2.610003471374511718750000 -3.317385911941528320312500 -0.658446669578552246093750 -0.192939072847366333007812 -0.230757400393486022949219 0.175796613097190856933594 0.187950536608695983886719 0.157851830124855041503906 0.069818675518035888671875 0.276900321245193481445312 0.073876343667507171630859 0.029491137713193893432617 0.353264123201370239257812 -0.003887653583660721778870 0.047557938843965530395508 0.077348090708255767822266 0.031077191233634948730469 0.093837656080722808837891 -0.042859680950641632080078 0.018389955163002014160156 -0.001279753749258816242218 -0.041525650769472122192383 0.398492008447647094726562 1.789111137390136718750000 -0.434506952762603759765625 4.597613334655761718750000 5.841185092926025390625000 2.042043685913085937500000 3.629590034484863281250000 5.612101078033447265625000 1.428519487380981445312500 0.318759709596633911132812 -0.097744621336460113525391 -0.162627279758453369140625 -0.676334798336029052734375 4.126219749450683593750000 3.364247322082519531250000 -3.057134866714477539062500 -4.444245815277099609375000 3.521120071411132812500000 -0.256365418434143066406250 -1.491068005561828613281250 -1.568095684051513671875000 -0.540694177150726318359375 -5.145472049713134765625000 -7.548564434051513671875000 1.282288670539855957031250 -0.858571648597717285156250 -1.700531363487243652343750 -1.537007451057434082031250 2.375729799270629882812500 1.416955709457397460937500 0.711266458034515380859375 1.763787627220153808593750 -0.727655470371246337890625 2.643971681594848632812500 1.504581212997436523437500 4.532938003540039062500000 2.449982404708862304687500 1.606423616409301757812500 1.930855035781860351562500 2.260259866714477539062500 0.429663509130477905273438 1.822987914085388183593750 -2.211043596267700195312500 -4.400163650512695312500000 -4.730195522308349609375000 0.142775759100914001464844 -2.895542144775390625000000 3.980246067047119140625000 0.992576420307159423828125 0.644287049770355224609375 -4.204444408416748046875000 0.647267341613769531250000 -8.791456222534179687500000 -1.365844726562500000000000 -0.167242571711540222167969 -0.178883120417594909667969 0.086032904684543609619141 -0.024655938148498535156250 -0.025337571278214454650879 -0.014152703806757926940918 0.070868723094463348388672 0.157500565052032470703125 0.110489793121814727783203 -0.135987952351570129394531 0.031549248844385147094727 0.013940644450485706329346 -0.035244137048721313476562 -0.078837186098098754882812 0.107435278594493865966797 -0.028521250933408737182617 0.053382709622383117675781 -0.107721388339996337890625 -3.546052217483520507812500 -3.171766757965087890625000 1.656361222267150878906250 -1.660459280014038085937500 -0.320368349552154541015625 2.407423973083496093750000 -3.724116563796997070312500 -3.176573514938354492187500 -0.541581749916076660156250 1.621063590049743652343750 3.032624244689941406250000 -1.490359425544738769531250 -4.396887779235839843750000 -6.183118820190429687500000 -0.772697150707244873046875 -3.355597257614135742187500 0.166404485702514648437500 -6.039302825927734375000000 
0.768054723739624023437500 1.897718548774719238281250 1.485256552696228027343750 -0.559249401092529296875000 -0.803405821323394775390625 -0.736628830432891845703125 -0.377495139837265014648438 0.210555315017700195312500 
2.953602790832519531250000 5.296231269836425781250000 6.456127643585205078125000 6.286962985992431640625000 2.897277593612670898437500 4.891785621643066406250000 2.389201402664184570312500 3.006214618682861328125000 
3.933433771133422851562500 -0.628271579742431640625000 -1.794095396995544433593750 0.062681280076503753662109 1.890956282615661621093750 0.016036592423915863037109 2.348196029663085937500000 2.840494871139526367187500 
31.107641220092773437500000 -2.675594329833984375000000 -71.829696655273437500000000 -64.007514953613281250000000 -59.115917205810546875000000 -39.008651733398437500000000 71.816635131835937500000000 -63.578441619873046875000000 
9988.876953125000000000000000 3564.067871093750000000000000 9555.901367187500000000000000 14209.053710937500000000000000 8554.363281250000000000000000 10349.083007812500000000000000 5815.225097656250000000000000 7229.912597656250000000000000 

0.529483318328857421875000 2.154838562011718750000000 -2.102919816970825195312500 -0.236028775572776794433594 -1.279275894165039062500000 -1.978967905044555664062500 -1.444633603096008300781250 3.186277627944946289062500 2.194891929626464843750000 1.031022071838378906250000 0.241709530353546142578125 -2.408440589904785156250000 -3.345587968826293945312500 -2.106798648834228515625000 0.858700156211853027343750 6.020636081695556640625000 1.141118645668029785156250 0.646116316318511962890625 -0.917286157608032226562500 0.076702445745468139648438 0.298696339130401611328125 0.493958473205566406250000 3.037128448486328125000000 6.196662425994873046875000 0.495181739330291748046875 -1.533025860786437988281250 -2.504739761352539062500000 -3.428805112838745117187500 -0.900578916072845458984375 1.733258128166198730468750 2.863290071487426757812500 1.331700921058654785156250 -0.075781174004077911376953 -4.827595710754394531250000 -6.911387443542480468750000 -10.932621955871582031250000 -7.687398433685302734375000 -1.634765744209289550781250 1.014976739883422851562500 3.061933755874633789062500 -0.726923882961273193359375 -3.798974990844726562500000 -6.124295234680175781250000 -11.887982368469238281250000 -7.932532310485839843750000 0.235550627112388610839844 1.048580169677734375000000 2.463933944702148437500000 1.255175828933715820312500 -1.817111372947692871093750 1.197777509689331054687500 -0.340723186731338500976562 1.209705352783203125000000 4.329654216766357421875000 2.172314167022705078125000 0.732053220272064208984375 -1.996277689933776855468750 -0.867571234703063964843750 1.965529441833496093750000 -0.957579433917999267578125 -1.622623801231384277343750 -1.798279404640197753906250 -2.418675422668457031250000 3.787233829498291015625000 -7.331235885620117187500000 -0.311079263687133789062500 0.066680319607257843017578 0.944267392158508300781250 -3.035136699676513671875000 -5.481776237487792968750000 -2.436064243316650390625000 -1.724889874458312988281250 -4.228003025054931640625000 -5.436555385589599609375000 -0.034275658428668975830078 0.936853885650634765625000 2.026253461837768554687500 -1.042975902557373046875000 -0.958158612251281738281250 1.778008818626403808593750 -5.308397293090820312500000 -2.115118741989135742187500 -0.415060520172119140625000 2.130642890930175781250000 3.628361463546752929687500 4.292561531066894531250000 3.994766950607299804687500 0.902555227279663085937500 -6.300544261932373046875000 -1.538134455680847167968750 -0.985065460205078125000000 3.426915407180786132812500 5.408392429351806640625000 5.011291503906250000000000 0.827940762042999267578125 2.607000827789306640625000 -0.242988154292106628417969 1.749653697013854980468750 1.864497184753417968750000 0.137143507599830627441406 -1.130816578865051269531250 -0.103527806699275970458984 1.044525861740112304687500 0.524469792842864990234375 -0.209415704011917114257812 4.231070041656494140625000 2.145665645599365234375000 0.924017012119293212890625 -3.375813007354736328125000 -3.950424909591674804687500 -0.553299725055694580078125 -2.041848897933959960937500 -1.685670852661132812500000 1.115043878555297851562500 3.124370336532592773437500 1.752192258834838867187500 -0.203034445643424987792969 -2.417332410812377929687500 -1.333969116210937500000000 -3.160282611846923828125000 -0.483895093202590942382812 1.983085155487060546875000 -1.241560220718383789062500 -3.006341934204101562500000 2.751937866210937500000000 -1.009162545204162597656250 -0.262887567281723022460938 0.248511761426925659179688 0.470886856317520141601562 -1.548174500465393066406250 -0.582862913608551025390625 -0.198125571012496948242188 0.546239793300628662109375 4.144365310668945312500000 3.807779073715209960937500 1.592824935913085937500000 -6.681674957275390625000000 -6.891683578491210937500000 -1.583179116249084472656250 0.134670406579971313476562 1.784937739372253417968750 3.121583938598632812500000 2.600443124771118164062500 2.175042390823364257812500 0.040997780859470367431641 -0.168679118156433105468750 -5.094644069671630859375000 -4.226919174194335937500000 -4.626134395599365234375000 1.078107595443725585937500 3.712990522384643554687500 0.279034465551376342773438 4.098794460296630859375000 0.969448328018188476562500 -6.323272228240966796875000 -9.683805465698242187500000 -6.988355159759521484375000 -1.297621130943298339843750 -0.238662362098693847656250 2.680645942687988281250000 4.320965290069580078125000 2.612566232681274414062500 0.202093213796615600585938 -4.440209865570068359375000 -3.125963211059570312500000 1.902626276016235351562500 0.654496788978576660156250 3.488609790802001953125000 -1.008231401443481445312500 0.827561736106872558593750 1.686152815818786621093750 1.021072864532470703125000 -1.753405213356018066406250 -2.718876838684082031250000 -1.520678520202636718750000 -3.469991445541381835937500 -1.137607932090759277343750 2.335462570190429687500000 1.056650876998901367187500 -1.133136987686157226562500 -3.750933170318603515625000 -4.306595802307128906250000 -2.034342050552368164062500 -1.829987883567810058593750 -0.518752574920654296875000 -0.383970528841018676757812 0.373436957597732543945312 -0.572344303131103515625000 -2.751461267471313476562500 -2.125117063522338867187500 -0.470799326896667480468750 -2.692065715789794921875000 -4.201165199279785156250000 -1.106364727020263671875000 2.005293846130371093750000 4.986702919006347656250000 2.765988588333129882812500 4.397374153137207031250000 6.298978328704833984375000 5.148144245147705078125000 -0.726857841014862060546875 0.020996976643800735473633 4.572310924530029296875000 4.592924118041992187500000 4.114721775054931640625000 3.355757236480712890625000 4.071350574493408203125000 4.618550777435302734375000 1.926580429077148437500000 -1.839928627014160156250000 0.787843227386474609375000 6.196893692016601562500000 3.425058126449584960937500 0.431390881538391113281250 -0.309780031442642211914062 -1.216998219490051269531250 3.542693614959716796875000 1.259661793708801269531250 -0.292772680521011352539062 -0.313329070806503295898438 -0.433437079191207885742188 0.778820991516113281250000 2.165781736373901367187500 0.449550718069076538085938 1.216827392578125000000000 0.039854284375905990600586 -0.390238136053085327148438 1.230623960494995117187500 1.749257683753967285156250 2.768981456756591796875000 4.206153392791748046875000 3.223666906356811523437500 -1.448810338973999023437500 -0.974030554294586181640625 1.684535026550292968750000 -0.403888314962387084960938 2.776920795440673828125000 2.361934661865234375000000 1.684576511383056640625000 2.318176507949829101562500 0.831642568111419677734375 4.737700462341308593750000 1.980245947837829589843750 2.657552957534790039062500 1.394846796989440917968750 -1.531012535095214843750000 -2.313499927520751953125000 -1.436707615852355957031250 -0.115196265280246734619141 4.889379978179931640625000 5.156257629394531250000000 4.824111461639404296875000 6.754981517791748046875000 -0.375497400760650634765625 2.217243194580078125000000 0.144090592861175537109375 0.175951629877090454101562 3.489387512207031250000000 6.418773651123046875000000 3.339449405670166015625000 6.351447582244873046875000 5.733220577239990234375000 -2.462314605712890625000000 1.180454373359680175781250 2.094968795776367187500000 -0.341664522886276245117188 -0.175690099596977233886719 1.696352243423461914062500 4.122028350830078125000000 5.084848403930664062500000 3.628217220306396484375000 6.087133407592773437500000 5.740629196166992187500000 2.649442195892333984375000 0.258169889450073242187500 1.230092287063598632812500 2.586964607238769531250000 4.609336853027343750000000 4.421356678009033203125000 11.393944740295410156250000 -3.162295579910278320312500 -6.115592479705810546875000 -4.591331005096435546875000 -1.515208125114440917968750 1.063063859939575195312500 4.718740463256835937500000 5.065641403198242187500000 5.678996086120605468750000 -0.766764461994171142578125 -0.297373861074447631835938 0.213822096586227416992188 -0.554585754871368408203125 -2.126818180084228515625000 0.700024068355560302734375 -3.539296150207519531250000 5.736836433410644531250000 3.098763704299926757812500 -1.292114257812500000000000 -1.183912754058837890625000 -0.086112432181835174560547 0.838957786560058593750000 2.049785614013671875000000 0.420380115509033203125000 3.942676782608032226562500 0.098504744470119476318359 1.327160358428955078125000 -1.016523003578186035156250 -2.608174324035644531250000 -1.971932649612426757812500 0.806842565536499023437500 3.011699914932250976562500 2.040299415588378906250000 0.767205476760864257812500 0.628250777721405029296875 -4.101348876953125000000000 -3.332306861877441406250000 2.906693935394287109375000 2.873651504516601562500000 1.811400890350341796875000 1.232955098152160644531250 3.395384311676025390625000 -0.364952355623245239257812 5.070893287658691406250000 0.029281795024871826171875 2.834279775619506835937500 2.893626213073730468750000 4.454468250274658203125000 7.641804695129394531250000 -3.800748109817504882812500 1.999579548835754394531250 6.483988285064697265625000 0.615994632244110107421875 4.229517936706542968750000 3.139271259307861328125000 0.770794868469238281250000 3.680730104446411132812500 -2.144695043563842773437500 0.826236426830291748046875 2.911665678024291992187500 5.337751865386962890625000 5.302926540374755859375000 4.206264495849609375000000 2.903542280197143554687500 -1.039204120635986328125000 -2.442646980285644531250000 0.598009645938873291015625 1.111029505729675292968750 2.263106107711791992187500 3.974090814590454101562500 4.505928039550781250000000 4.893928527832031250000000 4.134542942047119140625000 -0.249326318502426147460938 1.593556880950927734375000 3.231048345565795898437500 -0.636634945869445800781250 -1.471030712127685546875000 -2.476283311843872070312500 -0.424167871475219726562500 -1.516322731971740722656250 0.402507960796356201171875 -1.823289990425109863281250 -4.171557903289794921875000 -2.397258281707763671875000 -2.828421592712402343750000 -3.662737369537353515625000 -3.370297670364379882812500 -0.925538480281829833984375 5.201753616333007812500000 4.820433139801025390625000 2.544478416442871093750000 2.360166311264038085937500 0.792557537555694580078125 2.785467147827148437500000 0.649518013000488281250000 2.039656162261962890625000 1.437899351119995117187500 3.184203863143920898437500 1.999175667762756347656250 0.907703578472137451171875 1.241438269615173339843750 -2.031020164489746093750000 -3.918367385864257812500000 -1.378808856010437011718750 -4.052430629730224609375000 -3.959912538528442382812500 -0.850880622863769531250000 -5.064075469970703125000000 -3.372339487075805664062500 -3.210227727890014648437500 -1.402624845504760742187500 -0.810283303260803222656250 -2.639636278152465820312500 -2.886923551559448242187500 -1.896953940391540527343750 0.087684877216815948486328 1.531462788581848144531250 2.240788459777832031250000 5.206832885742187500000000 5.773002147674560546875000 -3.281412601470947265625000 -2.926222801208496093750000 -2.186183929443359375000000 0.730845332145690917968750 -0.304418176412582397460938 2.876177549362182617187500 2.363528966903686523437500 4.195745468139648437500000 2.154359817504882812500000 -0.303872793912887573242188 1.297644734382629394531250 1.850554823875427246093750 3.684557676315307617187500 1.112187385559082031250000 0.813184678554534912109375 -2.464501142501831054687500 2.246130943298339843750000 2.049368143081665039062500 3.776715755462646484375000 4.929701328277587890625000 5.562127113342285156250000 3.112073183059692382812500 1.135088801383972167968750 1.672717571258544921875000 0.645161211490631103515625 0.996139287948608398437500 3.647024631500244140625000 2.706374883651733398437500 3.329612731933593750000000 3.223508119583129882812500 1.859159231185913085937500 3.767709016799926757812500 -2.081933498382568359375000 -5.242099761962890625000000 -5.745747566223144531250000 -6.064465522766113281250000 -7.139268398284912109375000 -5.879267692565917968750000 -1.403032898902893066406250 -3.953598499298095703125000 -3.404658555984497070312500 -3.801333904266357421875000 -3.287048578262329101562500 -7.523950099945068359375000 -11.200349807739257812500000 -8.446493148803710937500000 -6.921957492828369140625000 -6.028887271881103515625000 3.925859451293945312500000 -1.130079507827758789062500 -1.484390020370483398437500 -5.667321681976318359375000 -2.433593750000000000000000 -1.566639423370361328125000 -3.969593524932861328125000 -1.761011242866516113281250 -2.764040231704711914062500 -5.573740482330322265625000 -4.487204551696777343750000 -3.393797636032104492187500 -8.090045928955078125000000 -3.731109380722045898437500 -4.523446559906005859375000 -3.958544492721557617187500 -3.741839408874511718750000 -1.664863824844360351562500 -2.494495391845703125000000 -2.104425430297851562500000 -5.858039855957031250000000 -3.870647192001342773437500 -8.399777412414550781250000 -4.005599975585937500000000 -0.769545733928680419921875 0.677235782146453857421875 0.023222962394356727600098 0.375520825386047363281250 -5.189073562622070312500000 -4.031002044677734375000000 -2.052827119827270507812500 -2.324233531951904296875000 -3.508893013000488281250000 -2.313754558563232421875000 -3.412116050720214843750000 -1.180282473564147949218750 -1.543140411376953125000000 -0.663282811641693115234375 -2.580176353454589843750000 -1.697633147239685058593750 -4.201416015625000000000000 -5.244957923889160156250000 -0.982229292392730712890625 -1.500364065170288085937500 0.872305870056152343750000 3.055154085159301757812500 4.960701465606689453125000 1.064411759376525878906250 -2.971383333206176757812500 -1.012673020362854003906250 0.486426562070846557617188 -2.691108703613281250000000 -0.178302079439163208007812 -0.163452208042144775390625 -0.402825713157653808593750 -0.624518811702728271484375 -2.210849761962890625000000 -2.269501209259033203125000 -0.279228955507278442382812 -1.758632540702819824218750 -1.896194458007812500000000 -1.463896393775939941406250 -1.443140864372253417968750 -0.941658437252044677734375 0.896241426467895507812500 -2.861258506774902343750000 0.528594553470611572265625 -4.601378440856933593750000 -4.432091712951660156250000 -7.458167552947998046875000 -4.548851013183593750000000 -2.548318147659301757812500 -1.818053245544433593750000 -1.378087162971496582031250 -1.232523918151855468750000 -2.001854181289672851562500 -5.241093635559082031250000 -2.328720569610595703125000 -6.167544841766357421875000 -3.880132675170898437500000 -0.368357002735137939453125 -4.499463081359863281250000 -3.770205497741699218750000 -5.867871761322021484375000 -3.899224281311035156250000 -2.164142608642578125000000 2.294229507446289062500000 0.343243122100830078125000 0.328451275825500488281250 -2.944451570510864257812500 -0.737041532993316650390625 -3.318228721618652343750000 -1.995784878730773925781250 1.067296504974365234375000 0.534359574317932128906250 4.154233932495117187500000 -2.299086570739746093750000 -3.334735393524169921875000 -1.837124347686767578125000 -1.813077092170715332031250 -0.405975043773651123046875 3.761089801788330078125000 3.605457067489624023437500 3.470400333404541015625000 0.512052774429321289062500 2.716129302978515625000000 4.575464248657226562500000 0.062897711992263793945312 -1.432933330535888671875000 0.531209170818328857421875 0.737426280975341796875000 -1.956640362739562988281250 2.394573211669921875000000 3.155060768127441406250000 -1.238076210021972656250000 1.102092266082763671875000 -3.444958448410034179687500 -2.911994457244873046875000 -1.010350465774536132812500 -2.030352830886840820312500 4.462741851806640625000000 -1.929177284240722656250000 0.318627119064331054687500 -1.442542910575866699218750 -0.884075641632080078125000 -0.860861122608184814453125 1.040720701217651367187500 3.081143617630004882812500 -0.558462321758270263671875 -0.343091666698455810546875 0.785682499408721923828125 -0.432736963033676147460938 -3.833474636077880859375000 -3.231309890747070312500000 -5.418502330780029296875000 -3.591834783554077148437500 3.662283182144165039062500 -0.621409833431243896484375 6.375549316406250000000000 3.915034055709838867187500 0.454595565795898437500000 1.144271850585937500000000 -0.544952094554901123046875 -2.080708026885986328125000 1.679742097854614257812500 -0.139294683933258056640625 -0.714750468730926513671875 -1.210071206092834472656250 -3.738314390182495117187500 -1.778337597846984863281250 -8.879145622253417968750000 -8.633028984069824218750000 -3.206036090850830078125000 -3.512010812759399414062500 -0.940190970897674560546875 -1.668407559394836425781250 -4.047021389007568359375000 -5.955412387847900390625000 -2.100151538848876953125000 -1.113324046134948730468750 -1.990408420562744140625000 -5.772410392761230468750000 -3.269382953643798828125000 -7.316506385803222656250000 -9.078409194946289062500000 -6.043550491333007812500000 -5.904383182525634765625000 -2.215863227844238281250000 -8.184048652648925781250000 -9.802849769592285156250000 -7.204068183898925781250000 -6.610723972320556640625000 -6.540503025054931640625000 -2.244551658630371093750000 -1.006582856178283691406250 -2.901019334793090820312500 -0.112053476274013519287109 -2.131639719009399414062500 1.103993177413940429687500 -1.850271344184875488281250 -5.231482505798339843750000 -4.757295131683349609375000 -2.120903730392456054687500 -4.213150501251220703125000 1.257263541221618652343750 -2.456233263015747070312500 0.472410559654235839843750 -1.154940128326416015625000 -1.023380160331726074218750 1.830792903900146484375000 1.249924302101135253906250 1.315851926803588867187500 0.394419670104980468750000 0.208971396088600158691406 -2.634942770004272460937500 2.849246740341186523437500 3.560899019241333007812500 2.771313428878784179687500 1.578665733337402343750000 4.319748878479003906250000 -0.661656618118286132812500 -4.839629650115966796875000 -5.089472770690917968750000 -1.404497861862182617187500 -1.828699469566345214843750 0.565374612808227539062500 0.317952305078506469726562 -1.996039986610412597656250 2.477486371994018554687500 0.763345837593078613281250 2.255749225616455078125000 -1.296448826789855957031250 -3.806000471115112304687500 0.191798284649848937988281 -0.869379699230194091796875 -0.813109457492828369140625 4.633667469024658203125000 2.322560071945190429687500 2.681883573532104492187500 0.982681214809417724609375 0.210582345724105834960938 -1.931416392326354980468750 -1.263475179672241210937500 0.151327699422836303710938 0.268651396036148071289062 0.980714559555053710937500 4.090634822845458984375000 0.810561120510101318359375 -0.837927639484405517578125 -5.495934486389160156250000 -4.065141677856445312500000 -6.379367351531982421875000 -2.288328170776367187500000 1.494956016540527343750000 1.875464439392089843750000 -1.492961049079895019531250 -0.799428582191467285156250 -2.749382972717285156250000 -1.332780361175537109375000 -3.695529699325561523437500 -0.474136471748352050781250 5.013229370117187500000000 3.632964849472045898437500 0.514627039432525634765625 -0.964686214923858642578125 -2.452386856079101562500000 0.310621589422225952148438 -1.264058828353881835937500 2.545886993408203125000000 3.073046684265136718750000 -0.378705590963363647460938 -2.906106948852539062500000 -1.827659487724304199218750 -0.450048118829727172851562 2.787163019180297851562500 0.927912712097167968750000 -1.947551727294921875000000 -0.873307406902313232421875 2.547480583190917968750000 2.183489322662353515625000 2.537608623504638671875000 0.634339690208435058593750 -2.887303829193115234375000 -0.586688876152038574218750 1.210954546928405761718750 -0.015358067117631435394287 2.609919786453247070312500 3.456930398941040039062500 -0.702971100807189941406250 4.053857803344726562500000 -1.045306444168090820312500 -1.323534727096557617187500 0.246876433491706848144531 -2.521560430526733398437500 -1.555886030197143554687500 -0.500231266021728515625000 -1.743760704994201660156250 3.288687229156494140625000 0.472552061080932617187500 0.516606628894805908203125 -3.528558969497680664062500 -5.838305473327636718750000 -7.293132781982421875000000 -6.244616031646728515625000 -2.767149686813354492187500 2.123948574066162109375000 1.706261634826660156250000 1.372747302055358886718750 0.007144744042307138442993 -0.673094391822814941406250 0.415062218904495239257812 -0.846383035182952880859375 1.571490883827209472656250 0.788436293601989746093750 2.077702999114990234375000 2.506311893463134765625000 -2.829350948333740234375000 0.762472569942474365234375 -0.652645230293273925781250 0.647635042667388916015625 -1.573787331581115722656250 -0.757026255130767822265625 -3.310413599014282226562500 -3.207675457000732421875000 -0.934705495834350585937500 -2.258115291595458984375000 1.011749982833862304687500 -0.404435455799102783203125 -1.032647967338562011718750 -0.103835247457027435302734 -4.814293861389160156250000 -5.444169998168945312500000 0.793373048305511474609375 3.122424840927124023437500 0.021915910765528678894043 3.815661907196044921875000 0.535986304283142089843750 1.063138008117675781250000 0.871261596679687500000000 -0.364423483610153198242188 0.558935821056365966796875 0.421080917119979858398438 6.941493034362792968750000 8.856290817260742187500000 6.016102313995361328125000 3.734649658203125000000000 -1.524114251136779785156250 -1.279736995697021484375000 -2.133977651596069335937500 -3.537279605865478515625000 1.471511602401733398437500 5.119117259979248046875000 8.974358558654785156250000 7.281651496887207031250000 5.712912559509277343750000 5.910510540008544921875000 -2.573122262954711914062500 -5.430834770202636718750000 -1.100116610527038574218750 -1.134008169174194335937500 -2.181388616561889648437500 -1.405457496643066406250000 1.128592967987060546875000 0.007538409903645515441895 0.275831967592239379882812 1.106417775154113769531250 2.957379579544067382812500 1.308412432670593261718750 2.587228536605834960937500 1.156094551086425781250000 -0.333638310432434082031250 0.429681599140167236328125 -0.045130901038646697998047 3.103073596954345703125000 2.866908788681030273437500 3.981981754302978515625000 1.701778292655944824218750 -0.221180811524391174316406 0.384679466485977172851562 0.031407061964273452758789 -1.051268219947814941406250 -0.218683436512947082519531 -2.292161226272583007812500 -0.940268874168395996093750 -0.916483581066131591796875 -1.748394370079040527343750 -1.551458239555358886718750 -1.003067493438720703125000 -7.350224494934082031250000 -1.859338164329528808593750 -2.355648756027221679687500 -2.484934091567993164062500 -1.047824025154113769531250 -3.485260486602783203125000 -2.772030830383300781250000 -0.166987568140029907226562 -8.132364273071289062500000 -0.839678347110748291015625 -5.540174961090087890625000 -0.943983614444732666015625 -1.987565755844116210937500 -0.732699990272521972656250 -2.336760282516479492187500 1.902647376060485839843750 1.098155498504638671875000 3.858657836914062500000000 5.163085937500000000000000 2.307329893112182617187500 6.010407447814941406250000 1.292671799659729003906250 4.266902446746826171875000 0.090053848922252655029297 0.593468487262725830078125 -0.955875754356384277343750 -1.348907709121704101562500 -1.753928661346435546875000 -2.217232227325439453125000 0.087903283536434173583984 -0.636278629302978515625000 -1.467238783836364746093750 2.635303735733032226562500 0.443724840879440307617188 1.316076874732971191406250 1.796818375587463378906250 2.550985574722290039062500 -3.961099147796630859375000 -0.781859457492828369140625 -1.914247393608093261718750 2.803733587265014648437500 -0.488046377897262573242188 5.583569049835205078125000 1.983076572418212890625000 3.347909450531005859375000 0.980595052242279052734375 1.425369501113891601562500 -2.863604307174682617187500 -3.767889022827148437500000 -2.005764245986938476562500 -1.120411157608032226562500 2.176731109619140625000000 3.870465040206909179687500 6.559783458709716796875000 0.400983721017837524414062 -0.269496440887451171875000 -2.862070798873901367187500 -4.667407989501953125000000 -2.852552890777587890625000 -0.277813255786895751953125 3.996205091476440429687500 6.900464057922363281250000 6.388390064239501953125000 3.362452745437622070312500 1.070411443710327148437500 -5.331822872161865234375000 -6.764538764953613281250000 -8.778868675231933593750000 -5.123841762542724609375000 -3.762806653976440429687500 -0.411349624395370483398438 1.925655841827392578125000 0.366695851087570190429688 -1.632243275642395019531250 -4.151819705963134765625000 -6.889719963073730468750000 -2.648025989532470703125000 2.351627588272094726562500 2.095024108886718750000000 0.718455672264099121093750 -4.246641635894775390625000 2.644897222518920898437500 -1.241039037704467773437500 0.656364917755126953125000 -3.097982645034790039062500 1.381479978561401367187500 -2.832659721374511718750000 2.476504564285278320312500 -0.958132326602935791015625 1.443199157714843750000000 -1.371645092964172363281250 4.510495185852050781250000 4.388958454132080078125000 2.748762130737304687500000 1.451044201850891113281250 -0.440999895334243774414062 0.680390238761901855468750 -0.312482446432113647460938 2.476840496063232421875000 -0.331014424562454223632812 0.283208787441253662109375 0.442633509635925292968750 2.138339519500732421875000 1.820826768875122070312500 -5.886738300323486328125000 -3.591257810592651367187500 -3.056122303009033203125000 2.168387651443481445312500 -1.445587396621704101562500 -1.509180188179016113281250 -0.208445459604263305664062 -0.098351642489433288574219 0.899318814277648925781250 -1.866639614105224609375000 -3.342929363250732421875000 -1.906112909317016601562500 -1.374054789543151855468750 0.167019590735435485839844 -1.728327512741088867187500 -2.834497451782226562500000 -1.656866908073425292968750 -3.191210985183715820312500 -3.638965368270874023437500 -6.603249549865722656250000 -2.842140674591064453125000 -2.109119892120361328125000 -1.843248724937438964843750 -2.118219614028930664062500 2.775444269180297851562500 3.800363779067993164062500 4.421142578125000000000000 -0.399934411048889160156250 -0.202060282230377197265625 0.338188052177429199218750 -0.288750946521759033203125 1.133402824401855468750000 3.372546195983886718750000 3.361123085021972656250000 4.425080299377441406250000 6.409335136413574218750000 5.554572105407714843750000 2.015954971313476562500000 5.636032104492187500000000 3.332404613494873046875000 -0.594635009765625000000000 1.856551170349121093750000 0.122658833861351013183594 0.003711566561833024024963 0.694280326366424560546875 4.476951599121093750000000 2.242507934570312500000000 1.884376525878906250000000 -0.588344275951385498046875 0.848678767681121826171875 -5.171068191528320312500000 -2.027851104736328125000000 -1.642179965972900390625000 -4.462557792663574218750000 -4.132291793823242187500000 -1.637456297874450683593750 2.234585285186767578125000 2.483881235122680664062500 -1.567420125007629394531250 -2.651981115341186523437500 -2.566326618194580078125000 -3.017802715301513671875000 -0.103413641452789306640625 -0.997174084186553955078125 -0.397763192653656005859375 -0.376285195350646972656250 -1.932321786880493164062500 -2.042419910430908203125000 -0.191393971443176269531250 2.039513587951660156250000 1.740621566772460937500000 2.698198318481445312500000 -0.854649364948272705078125 -1.043755292892456054687500 2.138509750366210937500000 -1.921195626258850097656250 -4.165152072906494140625000 0.054062627255916595458984 -0.018067937344312667846680 -1.974069714546203613281250 0.497303903102874755859375 0.361215800046920776367188 2.962837457656860351562500 -1.240509033203125000000000 -4.662607192993164062500000 -2.023443937301635742187500 -2.210592985153198242187500 -2.937278985977172851562500 -1.395309925079345703125000 1.324317455291748046875000 1.576011419296264648437500 -0.382385402917861938476562 4.889781475067138671875000 -3.325178623199462890625000 -1.809954166412353515625000 -1.710219740867614746093750 1.438558578491210937500000 -8.065088272094726562500000 -1.609170556068420410156250 0.715485692024230957031250 1.247389674186706542968750 -1.836403250694274902343750 -0.650355339050292968750000 -1.823591113090515136718750 -3.423815250396728515625000 -2.745062351226806640625000 -0.798545360565185546875000 -2.342730283737182617187500 1.837552666664123535156250 -0.757576644420623779296875 -0.689541518688201904296875 -1.693714499473571777343750 -2.955336093902587890625000 2.595619916915893554687500 0.258801192045211791992188 1.236257076263427734375000 3.753313064575195312500000 3.234561681747436523437500 5.362440586090087890625000 4.363028049468994140625000 -1.719924092292785644531250 -2.011777400970458984375000 -3.849521160125732421875000 -0.837807476520538330078125 3.038223266601562500000000 -0.896038055419921875000000 -1.117430448532104492187500 0.450733125209808349609375 3.642106294631958007812500 3.138445377349853515625000 -2.046841382980346679687500 -0.140555784106254577636719 -0.464077800512313842773438 -3.443316936492919921875000 -5.017501831054687500000000 -3.517125368118286132812500 -3.586714506149291992187500 -4.837574958801269531250000 -0.671791553497314453125000 -0.086087271571159362792969 3.754516124725341796875000 1.954439043998718261718750 5.321650505065917968750000 4.687685966491699218750000 -6.719245910644531250000000 -2.733383417129516601562500 -1.922573328018188476562500 0.917279601097106933593750 3.730924844741821289062500 1.210261106491088867187500 2.268125534057617187500000 0.733687996864318847656250 -3.493674278259277343750000 3.807088136672973632812500 -2.757133483886718750000000 -3.645857572555541992187500 -0.752920567989349365234375 -4.641576290130615234375000 -1.488892674446105957031250 0.667780101299285888671875 -1.400952339172363281250000 -2.917101860046386718750000 -5.394116878509521484375000 1.086406826972961425781250 -5.611583232879638671875000 -1.881946563720703125000000 0.713674187660217285156250 -1.689751982688903808593750 0.254723250865936279296875 -1.797785282135009765625000 0.835100114345550537109375 -7.048215389251708984375000 -4.364074230194091796875000 -5.095622539520263671875000 -5.811302185058593750000000 -9.267790794372558593750000 3.361488342285156250000000 2.390314102172851562500000 -1.329668283462524414062500 0.955022752285003662109375 -4.956709861755371093750000 -3.867959022521972656250000 -0.470631748437881469726562 -0.064575769007205963134766 0.792298972606658935546875 0.378893047571182250976562 -0.882010996341705322265625 0.152851417660713195800781 2.133400678634643554687500 0.412724345922470092773438 1.005737185478210449218750 -2.715138673782348632812500 -0.723923802375793457031250 -1.598978042602539062500000 0.080582141876220703125000 -4.921801567077636718750000 -2.662919998168945312500000 -3.554546117782592773437500 -3.373594760894775390625000 -2.700652122497558593750000 -5.260432720184326171875000 -2.720284700393676757812500 -1.677350521087646484375000 -1.888683557510375976562500 -3.309953212738037109375000 -2.973113059997558593750000 -1.003707647323608398437500 -0.656519591808319091796875 -3.384346723556518554687500 -0.142152503132820129394531 -4.371519565582275390625000 -0.119126573204994201660156 -4.171128749847412109375000 -4.825599193572998046875000 -3.805349111557006835937500 -3.553317785263061523437500 -3.272969245910644531250000 -0.518262565135955810546875 -8.168389320373535156250000 -5.096687316894531250000000 -4.889430999755859375000000 -7.812272071838378906250000 -7.866456508636474609375000 -8.209853172302246093750000 -5.912608623504638671875000 0.055912286043167114257812 -7.047194957733154296875000 -3.304984092712402343750000 -9.649983406066894531250000 -4.825716972351074218750000 -6.533599376678466796875000 -7.434966087341308593750000 -1.520912289619445800781250 -1.622471928596496582031250 -0.663805902004241943359375 1.015332341194152832031250 -1.496062874794006347656250 -2.340769290924072265625000 -2.647109270095825195312500 -0.854474008083343505859375 5.039649963378906250000000 4.603724479675292968750000 4.541744709014892578125000 1.386871576309204101562500 -1.201372623443603515625000 -2.049758672714233398437500 -4.860039234161376953125000 -2.702210426330566406250000 0.605358719825744628906250 0.904424190521240234375000 -0.915007412433624267578125 0.302961587905883789062500 0.788592040538787841796875 -0.653479695320129394531250 -1.135009765625000000000000 -1.118904471397399902343750 -0.500164449214935302734375 1.381722927093505859375000 1.001200079917907714843750 0.246604993939399719238281 1.237024188041687011718750 2.424415588378906250000000 0.688836574554443359375000 1.977681040763854980468750 1.260882735252380371093750 1.016640901565551757812500 -0.852679312229156494140625 -2.372909069061279296875000 0.778135657310485839843750 -0.179021820425987243652344 0.614518046379089355468750 -1.315086841583251953125000 -0.438945263624191284179688 0.525309681892395019531250 -2.822563171386718750000000 -2.071535110473632812500000 -0.510583400726318359375000 -1.666163563728332519531250 -0.068961068987846374511719 -4.460314273834228515625000 -1.151203989982604980468750 -4.539093017578125000000000 0.542574405670166015625000 -1.172818779945373535156250 -7.373449325561523437500000 1.184697747230529785156250 -2.086357116699218750000000 -1.645980596542358398437500 0.726127445697784423828125 1.218183159828186035156250 -0.384571552276611328125000 2.350851535797119140625000 -4.675667762756347656250000 -1.292318224906921386718750 -4.334282398223876953125000 -2.190448999404907226562500 -5.889612197875976562500000 -0.164292693138122558593750 2.546567916870117187500000 1.947384476661682128906250 0.548213005065917968750000 2.680898189544677734375000 -2.206078052520751953125000 -2.214479207992553710937500 -3.190784692764282226562500 -1.806901216506958007812500 -2.654274702072143554687500 -0.764656186103820800781250 3.920303344726562500000000 6.249386310577392578125000 2.226220846176147460937500 0.872901737689971923828125 -2.010821342468261718750000 -2.832295894622802734375000 -2.503301143646240234375000 0.193605542182922363281250 6.065470695495605468750000 6.619369506835937500000000 4.777311801910400390625000 8.335220336914062500000000 -4.254369735717773437500000 -6.047051429748535156250000 -2.371373176574707031250000 -1.232462644577026367187500 2.012105703353881835937500 3.100371360778808593750000 4.935310840606689453125000 4.634024620056152343750000 -3.801613569259643554687500 -1.409338355064392089843750 -0.189050525426864624023438 -1.762423872947692871093750 0.786806404590606689453125 3.914494514465332031250000 0.992740929126739501953125 3.575712919235229492187500 -0.565415859222412109375000 0.388018697500228881835938 -3.473984241485595703125000 0.455103546380996704101562 -2.331474304199218750000000 1.055829644203186035156250 -2.740859031677246093750000 -2.582240343093872070312500 -3.859808444976806640625000 -6.308505535125732421875000 -4.363087177276611328125000 -1.814910888671875000000000 -0.556868374347686767578125 0.593586206436157226562500 -2.127431154251098632812500 -3.021778345108032226562500 0.930733084678649902343750 3.279348134994506835937500 -1.105006098747253417968750 -1.917388200759887695312500 1.153435349464416503906250 2.618785858154296875000000 2.506883621215820312500000 7.182394504547119140625000 -0.266311407089233398437500 -2.628561496734619140625000 -7.517545700073242187500000 -3.170384168624877929687500 -1.525617241859436035156250 0.502206206321716308593750 -0.410761296749114990234375 -1.139560818672180175781250 -4.489642143249511718750000 -2.969857454299926757812500 -3.789292097091674804687500 -2.106307744979858398437500 -1.467346429824829101562500 0.027195749804377555847168 1.269263386726379394531250 0.221985116600990295410156 -0.726810574531555175781250 1.594171166419982910156250 2.385600805282592773437500 1.542101383209228515625000 -1.755065679550170898437500 -2.564949035644531250000000 -5.588331699371337890625000 -8.161327362060546875000000 -0.554325878620147705078125 -0.667730152606964111328125 -0.496756464242935180664062 -0.331625133752822875976562 -8.860916137695312500000000 -9.951833724975585937500000 -8.771608352661132812500000 -12.195318222045898437500000 1.332925319671630859375000 -4.244198799133300781250000 -4.552419185638427734375000 -4.031225204467773437500000 -7.136796951293945312500000 -14.215934753417968750000000 -9.876722335815429687500000 -3.084811449050903320312500 -0.244592756032943725585938 1.019228696823120117187500 -1.546681404113769531250000 -0.661681175231933593750000 0.475998133420944213867188 0.675825893878936767578125 2.315346002578735351562500 3.541843652725219726562500 -0.231827095150947570800781 -0.476562976837158203125000 -1.021871566772460937500000 -2.584116220474243164062500 -1.276391148567199707031250 -1.041287422180175781250000 0.285107791423797607421875 -0.303059101104736328125000 -0.835492968559265136718750 4.927426815032958984375000 0.769383013248443603515625 -0.697812914848327636718750 0.264478296041488647460938 -2.058902263641357421875000 -1.908930182456970214843750 1.321586847305297851562500 -1.344541192054748535156250 0.510384619235992431640625 3.246855497360229492187500 -0.480295568704605102539062 2.890935420989990234375000 -1.688344717025756835937500 1.761281490325927734375000 -1.805899620056152343750000 -0.924777030944824218750000 -1.904569983482360839843750 1.637221217155456542968750 -0.918100655078887939453125 -0.946181535720825195312500 -0.268751263618469238281250 2.714078903198242187500000 1.313841938972473144531250 0.351785182952880859375000 -0.213846117258071899414062 -5.255013465881347656250000 -0.011317904107272624969482 -0.369544535875320434570312 -4.981065273284912109375000 -6.669676780700683593750000 -3.667649269104003906250000 1.200622677803039550781250 1.181855559349060058593750 -1.500032424926757812500000 1.198920011520385742187500 2.095753908157348632812500 0.665634572505950927734375 1.964128851890563964843750 1.329850077629089355468750 3.243578433990478515625000 0.905330121517181396484375 -0.118712529540061950683594 -0.627506732940673828125000 -1.173184752464294433593750 -5.067196846008300781250000 -1.396111249923706054687500 -3.012968778610229492187500 2.379148960113525390625000 0.180615440011024475097656 -0.192200705409049987792969 -1.277196049690246582031250 -0.262900799512863159179688 -0.750703155994415283203125 -3.077659130096435546875000 -1.089466929435729980468750 -4.826872348785400390625000 -1.998016357421875000000000 -2.260684490203857421875000 -3.275361537933349609375000 6.315902233123779296875000 4.833488941192626953125000 5.778798103332519531250000 4.217609882354736328125000 -7.268299579620361328125000 2.877032518386840820312500 7.835301876068115234375000 10.092464447021484375000000 13.030786514282226562500000 8.129036903381347656250000 8.420044898986816406250000 6.218420028686523437500000 -1.640760183334350585937500 0.517283737659454345703125 2.693755865097045898437500 5.190760135650634765625000 9.457980155944824218750000 5.317624568939208984375000 6.021903038024902343750000 3.087284326553344726562500 -3.184479475021362304687500 1.984698414802551269531250 2.127515077590942382812500 1.370311141014099121093750 3.192720651626586914062500 3.876432180404663085937500 4.465932369232177734375000 -0.383290410041809082031250 -4.454996585845947265625000 -1.678717136383056640625000 -0.315108805894851684570312 2.557164192199707031250000 4.381760597229003906250000 3.715022087097167968750000 4.542121887207031250000000 1.149302959442138671875000 2.147439002990722656250000 1.799073338508605957031250 -0.863379538059234619140625 5.158447742462158203125000 3.144260406494140625000000 -2.743275880813598632812500 -3.159706830978393554687500 -2.847657680511474609375000 -0.682070314884185791015625 0.890636920928955078125000 3.785129308700561523437500 2.532565116882324218750000 0.606393039226531982421875 0.541032493114471435546875 0.928334712982177734375000 -2.668292522430419921875000 0.517066895961761474609375 2.963495016098022460937500 4.400778770446777343750000 -3.956266164779663085937500 0.390429258346557617187500 -0.234321296215057373046875 1.952863931655883789062500 3.615169286727905273437500 1.377000212669372558593750 3.021698713302612304687500 2.787891149520874023437500 -0.664572060108184814453125 -0.295015603303909301757812 -2.235565662384033203125000 -0.883357107639312744140625 2.672982215881347656250000 -2.405612230300903320312500 0.458449691534042358398438 -0.207442089915275573730469 0.103740610182285308837891 -2.533437728881835937500000 -1.069996833801269531250000 -0.219406574964523315429688 -3.453359127044677734375000 2.328736066818237304687500 -1.163333892822265625000000 -1.707502245903015136718750 4.182593345642089843750000 3.649460792541503906250000 -4.556952476501464843750000 0.760737121105194091796875 1.508295893669128417968750 3.548054456710815429687500 1.091788291931152343750000 3.665875434875488281250000 1.708224534988403320312500 3.733854532241821289062500 1.992030739784240722656250 1.315510988235473632812500 -2.792251825332641601562500 -1.345327377319335937500000 2.323766946792602539062500 -0.559590637683868408203125 -5.467121601104736328125000 -3.572041749954223632812500 -2.737699508666992187500000 -1.995643973350524902343750 -1.636136770248413085937500 2.431432962417602539062500 1.221211194992065429687500 -1.053869962692260742187500 -0.725433051586151123046875 -1.518492937088012695312500 0.386653721332550048828125 -1.320160865783691406250000 -0.755455195903778076171875 1.349760413169860839843750 -0.360197603702545166015625 -0.485065728425979614257812 -3.120289802551269531250000 -1.766420245170593261718750 -4.786597251892089843750000 -4.143645286560058593750000 -5.426453590393066406250000 -0.350626081228256225585938 0.050889309495687484741211 2.862118959426879882812500 0.842559874057769775390625 -0.953462600708007812500000 1.858024597167968750000000 -1.537944316864013671875000 2.115545034408569335937500 0.762674748897552490234375 0.184017345309257507324219 0.056800279766321182250977 2.132497310638427734375000 2.900769472122192382812500 0.600228130817413330078125 5.124654293060302734375000 5.018501758575439453125000 2.857923507690429687500000 -0.076439984142780303955078 -0.744981944561004638671875 0.746249675750732421875000 -0.339559882879257202148438 2.239418983459472656250000 5.087972640991210937500000 4.140612125396728515625000 1.242081046104431152343750 1.748087525367736816406250 3.225467920303344726562500 2.675382852554321289062500 -2.291757583618164062500000 -1.902131080627441406250000 -1.858028888702392578125000 -1.862461686134338378906250 3.485075235366821289062500 0.412868589162826538085938 4.329780578613281250000000 2.041719198226928710937500 -1.505104064941406250000000 -1.595788717269897460937500 -3.080389738082885742187500 -6.039971351623535156250000 0.093992188572883605957031 -1.226011395454406738281250 2.229300260543823242187500 4.721089839935302734375000 3.465211153030395507812500 2.789861917495727539062500 1.319858074188232421875000 -0.190464034676551818847656 -1.500408530235290527343750 -2.587736129760742187500000 -5.760990619659423828125000 -14.449499130249023437500000 -14.074792861938476562500000 -7.552540779113769531250000 -9.973317146301269531250000 -4.124453544616699218750000 -7.478932380676269531250000 -9.615184783935546875000000 -13.431521415710449218750000 -24.779935836791992187500000 -15.513072013854980468750000 -12.747407913208007812500000 -8.945886611938476562500000 -2.865937709808349609375000 -0.861222684383392333984375 -3.036555767059326171875000 -0.955597043037414550781250 -4.415537834167480468750000 -2.855908393859863281250000 -2.694385528564453125000000 -3.181056499481201171875000 0.288294851779937744140625 -4.165741920471191406250000 -1.370236158370971679687500 4.489475727081298828125000 -0.227308169007301330566406 3.034603357315063476562500 0.227707162499427795410156 0.735348045825958251953125 4.627497196197509765625000 0.652252078056335449218750 -1.305863380432128906250000 0.146336972713470458984375 0.317763835191726684570312 -0.850863397121429443359375 3.097834348678588867187500 2.590911865234375000000000 -0.104913726449012756347656 0.118155017495155334472656 -0.945513069629669189453125 -0.313172429800033569335938 1.053611516952514648437500 -2.845647096633911132812500 2.681277513504028320312500 0.607408285140991210937500 -4.482222557067871093750000 0.382599085569381713867188 1.464472532272338867187500 0.716397464275360107421875 2.243183851242065429687500 1.119452953338623046875000 -0.019136739894747734069824 -1.419910192489624023437500 -1.271408915519714355468750 -4.368266582489013671875000 -1.433396816253662109375000 -0.442226767539978027343750 1.187289834022521972656250 1.724490761756896972656250 2.084097385406494140625000 -0.431675910949707031250000 -1.768925189971923828125000 -0.839034259319305419921875 -0.312624514102935791015625 0.790419995784759521484375 -0.773998677730560302734375 -3.137243747711181640625000 0.343589842319488525390625 -0.707603693008422851562500 0.272474795579910278320312 1.588866829872131347656250 -0.441170185804367065429688 4.896431922912597656250000 2.509622573852539062500000 1.445722341537475585937500 -0.161563232541084289550781 1.522732496261596679687500 -0.973278880119323730468750 -1.539457440376281738281250 -4.546289920806884765625000 0.393471777439117431640625 0.249267786741256713867188 -0.575900733470916748046875 -0.410475224256515502929688 0.774973988533020019531250 1.894452452659606933593750 -6.189827442169189453125000 -2.890086174011230468750000 -3.165444612503051757812500 -1.088869571685791015625000 0.303240954875946044921875 1.929211497306823730468750 1.575247764587402343750000 2.064130783081054687500000 0.974302947521209716796875 -2.588631391525268554687500 1.435371279716491699218750 -4.692895412445068359375000 -0.162856653332710266113281 -0.214918017387390136718750 1.105082988739013671875000 4.160073757171630859375000 -3.098762035369873046875000 -3.848884105682373046875000 2.110151529312133789062500 -3.416691541671752929687500 -1.146517395973205566406250 -0.962438762187957763671875 1.506575703620910644531250 1.921307802200317382812500 -2.357429027557373046875000 -0.114847160875797271728516 0.149957388639450073242188 -2.467602968215942382812500 0.100713022053241729736328 1.457002878189086914062500 -1.093747973442077636718750 -1.678640723228454589843750 0.209481611847877502441406 -1.851944088935852050781250 -3.210128307342529296875000 -2.934612035751342773437500 -2.492978334426879882812500 -2.968455791473388671875000 -1.990307688713073730468750 -0.198042944073677062988281 -3.161558389663696289062500 -3.258704900741577148437500 -2.050384521484375000000000 -0.164957448840141296386719 0.193565487861633300781250 -0.430331796407699584960938 2.734057426452636718750000 2.019003868103027343750000 0.961349129676818847656250 -1.388906002044677734375000 -0.809360921382904052734375 -1.224491238594055175781250 -0.759247541427612304687500 -1.741836309432983398437500 1.289889454841613769531250 1.656242728233337402343750 -1.301966905593872070312500 -0.990331947803497314453125 -0.207846239209175109863281 1.187292695045471191406250 0.484235346317291259765625 2.339627504348754882812500 3.004165410995483398437500 5.841580867767333984375000 0.277621388435363769531250 -0.390815407037734985351562 -0.154894694685935974121094 -1.420688509941101074218750 0.152895897626876831054688 0.074280187487602233886719 1.534836888313293457031250 -1.072621703147888183593750 -1.054801464080810546875000 -0.138531342148780822753906 -3.009024143218994140625000 -3.807225465774536132812500 -2.037277221679687500000000 0.071581915020942687988281 -0.625097513198852539062500 -1.330440282821655273437500 1.727344036102294921875000 0.506007432937622070312500 -1.521961808204650878906250 -1.105016946792602539062500 1.422621011734008789062500 2.040898323059082031250000 -2.591663837432861328125000 -0.829358935356140136718750 1.783329486846923828125000 2.152772903442382812500000 3.229273796081542968750000 6.183376789093017578125000 9.542299270629882812500000 6.856446266174316406250000 5.138544559478759765625000 5.165391445159912109375000 -1.313305974006652832031250 -4.221913337707519531250000 -5.080927848815917968750000 -7.160551071166992187500000 -6.684997558593750000000000 -4.512102127075195312500000 -2.336982488632202148437500 -3.792620658874511718750000 0.553051292896270751953125 -0.151144191622734069824219 -0.655343770980834960937500 -0.203561067581176757812500 -0.431944727897644042968750 1.620119333267211914062500 0.120776928961277008056641 0.478855371475219726562500 1.732988595962524414062500 -1.114734649658203125000000 -0.706509590148925781250000 -2.088184118270874023437500 -1.801206946372985839843750 -1.276850223541259765625000 -3.069245576858520507812500 -3.146954774856567382812500 -0.212549984455108642578125 -2.966700315475463867187500 -3.019873857498168945312500 -2.299393653869628906250000 -3.406044960021972656250000 -1.332072854042053222656250 -0.986695170402526855468750 -0.165568709373474121093750 -1.467210412025451660156250 -1.017598152160644531250000 2.429974079132080078125000 -1.339741230010986328125000 -0.507599472999572753906250 2.651592731475830078125000 -1.684723615646362304687500 3.493832588195800781250000 -3.124672412872314453125000 2.029956817626953125000000 1.679501891136169433593750 -0.573243498802185058593750 -1.884549736976623535156250 -6.016646385192871093750000 -2.181529283523559570312500 -1.699338793754577636718750 -4.186198711395263671875000 4.421138763427734375000000 0.667562305927276611328125 3.214007616043090820312500 1.490060806274414062500000 1.518628239631652832031250 1.094994187355041503906250 -0.707838475704193115234375 0.003411170328035950660706 3.649368286132812500000000 1.202199935913085937500000 3.093338727951049804687500 1.675703644752502441406250 2.464172124862670898437500 -0.079062499105930328369141 0.615644395351409912109375 1.602792501449584960937500 1.658318519592285156250000 4.613187789916992187500000 4.079617023468017578125000 4.124937534332275390625000 4.494261264801025390625000 2.038730382919311523437500 3.245988130569458007812500 -1.069590926170349121093750 -1.362977743148803710937500 -3.289715290069580078125000 -5.062123298645019531250000 -6.289760589599609375000000 -6.400132179260253906250000 -5.523645401000976562500000 -4.969599246978759765625000 0.255966454744338989257812 0.188383743166923522949219 2.624578952789306640625000 1.740610241889953613281250 -2.441822290420532226562500 -1.788565635681152343750000 -0.234977394342422485351562 0.787032365798950195312500 0.789394795894622802734375 1.123882770538330078125000 4.342537403106689453125000 5.777916431427001953125000 2.541609525680541992187500 1.732908725738525390625000 -2.744120597839355468750000 -0.583300471305847167968750 0.712992846965789794921875 1.221464395523071289062500 2.094345092773437500000000 1.204575657844543457031250 0.797611176967620849609375 3.577153205871582031250000 0.905090510845184326171875 0.531540513038635253906250 -0.496952831745147705078125 -2.102150201797485351562500 0.651909410953521728515625 1.023336648941040039062500 5.032566547393798828125000 3.791800260543823242187500 0.577945113182067871093750 1.461027741432189941406250 0.249894946813583374023438 2.348853111267089843750000 -0.126348346471786499023438 1.613518953323364257812500 0.310209721326828002929688 1.497508406639099121093750 3.237131357192993164062500 -0.922901213169097900390625 -3.216653347015380859375000 -4.557023525238037109375000 -6.345652103424072265625000 -6.160598754882812500000000 -7.958252429962158203125000 -4.095676898956298828125000 -3.142052173614501953125000 -5.072760581970214843750000 1.160913705825805664062500 -2.466789007186889648437500 -1.714509129524230957031250 1.182928919792175292968750 1.929156899452209472656250 -0.233840912580490112304688 0.199512749910354614257812 -0.572231113910675048828125 3.872232913970947265625000 0.904089450836181640625000 -1.736470699310302734375000 -1.272995233535766601562500 -1.957241296768188476562500 0.360255867242813110351562 0.801769971847534179687500 -1.235954284667968750000000 -0.884998440742492675781250 1.780588030815124511718750 3.984227180480957031250000 5.549121379852294921875000 4.556029319763183593750000 4.520673274993896484375000 1.290695428848266601562500 1.414841771125793457031250 -0.760457336902618408203125 -0.172471895813941955566406 -1.601674556732177734375000 -0.210375204682350158691406 -0.981098234653472900390625 0.786995530128479003906250 1.499071598052978515625000 3.036645412445068359375000 -0.485925942659378051757812 -0.339760005474090576171875 -0.613318622112274169921875 3.083570003509521484375000 3.146115541458129882812500 4.078799724578857421875000 2.199643373489379882812500 2.671246290206909179687500 -1.954049944877624511718750 -4.723515033721923828125000 -6.304767131805419921875000 -3.692265272140502929687500 -6.518270015716552734375000 -4.552503585815429687500000 -9.362562179565429687500000 -5.404842376708984375000000 0.272002637386322021484375 -2.158311843872070312500000 -2.512089490890502929687500 -1.099082946777343750000000 -4.866242408752441406250000 -3.994352817535400390625000 -1.787590146064758300781250 4.448470592498779296875000 1.164342164993286132812500 0.446588546037673950195312 -4.633168697357177734375000 -2.376909494400024414062500 -0.687202155590057373046875 -0.357549428939819335937500 -2.411950111389160156250000 0.798974037170410156250000 0.385844200849533081054688 -1.179204463958740234375000 0.550294399261474609375000 3.649366855621337890625000 0.810556709766387939453125 2.693813085556030273437500 -0.030016431584954261779785 0.668835937976837158203125 -0.122958429157733917236328 1.339644908905029296875000 1.838856577873229980468750 1.602994084358215332031250 1.442939639091491699218750 1.325430512428283691406250 2.896414279937744140625000 3.241772890090942382812500 0.141729176044464111328125 0.750793099403381347656250 1.696677565574645996093750 2.449806213378906250000000 4.393664360046386718750000 4.915149211883544921875000 5.073234558105468750000000 2.990856409072875976562500 -0.120014339685440063476562 0.580049872398376464843750 1.282936573028564453125000 2.200393915176391601562500 3.034693717956542968750000 3.777502059936523437500000 0.726072967052459716796875 0.377977907657623291015625 -1.431136369705200195312500 -0.176185056567192077636719 -3.031931400299072265625000 -1.487277507781982421875000 2.061283349990844726562500 2.353305578231811523437500 3.223176479339599609375000 8.258754730224609375000000 -1.853421092033386230468750 0.288971900939941406250000 -0.314134120941162109375000 0.209747284650802612304688 -2.145697832107543945312500 1.031450867652893066406250 -4.075654029846191406250000 0.955286264419555664062500 -3.113996505737304687500000 -5.760872364044189453125000 -4.008430957794189453125000 -5.382192611694335937500000 -4.804678440093994140625000 -2.562067270278930664062500 -2.910384654998779296875000 -5.476262092590332031250000 -1.716169834136962890625000 -3.506008148193359375000000 -2.861148357391357421875000 -3.651251554489135742187500 -1.022010087966918945312500 -2.651938915252685546875000 -2.132869482040405273437500 1.009043574333190917968750 -0.200719878077507019042969 -1.970411062240600585937500 -3.946030855178833007812500 -2.987599849700927734375000 -2.935473442077636718750000 -3.854231357574462890625000 -2.900031566619873046875000 -1.279885768890380859375000 0.743951320648193359375000 -2.078793525695800781250000 -1.473897933959960937500000 1.075731992721557617187500 -5.958556652069091796875000 -4.935967445373535156250000 -7.025242805480957031250000 -4.793921470642089843750000 5.412405490875244140625000 4.218207359313964843750000 5.352069854736328125000000 2.300565719604492187500000 2.979656457901000976562500 0.866499841213226318359375 2.821405410766601562500000 -0.273272693157196044921875 2.351622104644775390625000 2.397439241409301757812500 2.235806465148925781250000 3.856350898742675781250000 4.290163993835449218750000 5.143515110015869140625000 5.522544860839843750000000 3.708453178405761718750000 1.018682122230529785156250 -0.137472718954086303710938 -1.372464060783386230468750 3.384685993194580078125000 1.488013386726379394531250 4.766814708709716796875000 3.242804765701293945312500 5.074643611907958984375000 -3.417411088943481445312500 1.441447138786315917968750 0.103766806423664093017578 0.473175525665283203125000 5.012594223022460937500000 1.598830342292785644531250 3.813084125518798828125000 3.193569183349609375000000 -1.801858782768249511718750 3.352867841720581054687500 0.394496142864227294921875 2.499753713607788085937500 0.104880467057228088378906 2.081933736801147460937500 3.691008806228637695312500 2.571265459060668945312500 -0.354351252317428588867188 -0.753798902034759521484375 -0.973696827888488769531250 -0.357959330081939697265625 -0.353950649499893188476562 -3.751280307769775390625000 -6.194406509399414062500000 -3.631739616394042968750000 -0.244465291500091552734375 1.234717845916748046875000 0.966232717037200927734375 -1.611749172210693359375000 -0.534847497940063476562500 -0.433580845594406127929688 1.994427204132080078125000 2.146433591842651367187500 0.550395309925079345703125 -1.853697776794433593750000 -0.781728088855743408203125 -2.817712068557739257812500 -6.743498325347900390625000 -7.994466781616210937500000 -5.908472061157226562500000 -0.480824828147888183593750 2.308286428451538085937500 1.411215186119079589843750 -0.389101982116699218750000 -3.858610391616821289062500 -3.945752143859863281250000 -4.325043201446533203125000 -2.095980644226074218750000 1.983224630355834960937500 -1.564659595489501953125000 1.710948109626770019531250 -1.395304560661315917968750 0.376172840595245361328125 -1.215852260589599609375000 -4.191922187805175781250000 -8.899655342102050781250000 -7.262569904327392578125000 -5.012607574462890625000000 -3.358610868453979492187500 -3.644300222396850585937500 -3.560584545135498046875000 -3.955730915069580078125000 -5.685891628265380859375000 -3.745913743972778320312500 -9.166295051574707031250000 0.946886837482452392578125 2.256123542785644531250000 -5.034646034240722656250000 -5.049257278442382812500000 -2.042732477188110351562500 -0.053149841725826263427734 -2.423696517944335937500000 -0.632329523563385009765625 -3.037546396255493164062500 -2.443477630615234375000000 0.536427855491638183593750 -0.624752461910247802734375 -1.699646592140197753906250 -0.776135921478271484375000 -1.211032390594482421875000 1.913692712783813476562500 -0.064120009541511535644531 -0.973802685737609863281250 1.785338640213012695312500 4.224855899810791015625000 -1.542726516723632812500000 -2.151273727416992187500000 -3.459130048751831054687500 -2.608385324478149414062500 1.151925206184387207031250 1.256176710128784179687500 3.151689529418945312500000 -2.056484460830688476562500 -1.668042659759521484375000 -3.396685600280761718750000 -1.017016172409057617187500 -2.581436157226562500000000 -1.078430294990539550781250 -0.981313586235046386718750 0.659692049026489257812500 -3.212949991226196289062500 -6.132882595062255859375000 -7.402514457702636718750000 -2.831740617752075195312500 2.945920228958129882812500 1.012287735939025878906250 0.093711793422698974609375 0.348145872354507446289062 -1.034786939620971679687500 -8.946379661560058593750000 -11.707223892211914062500000 -10.368484497070312500000000 -2.251066684722900390625000 2.000363111495971679687500 0.937285661697387695312500 0.507227361202239990234375 -0.985733389854431152343750 -7.071377277374267578125000 -10.393432617187500000000000 -11.284202575683593750000000 -2.390921115875244140625000 1.406307339668273925781250 1.628015756607055664062500 -0.368645727634429931640625 -2.400636672973632812500000 -2.134068489074707031250000 0.492269098758697509765625 -0.455834478139877319335938 3.305799007415771484375000 0.499140799045562744140625 -2.562305927276611328125000 -1.867752552032470703125000 2.112753868103027343750000 -2.205388069152832031250000 0.664272248744964599609375 0.260050445795059204101562 -0.528768777847290039062500 0.758596897125244140625000 1.379828214645385742187500 -1.581220388412475585937500 -0.168291181325912475585938 5.262885570526123046875000 5.446843147277832031250000 -0.550598084926605224609375 -4.221507072448730468750000 1.580636262893676757812500 -0.403305381536483764648438 -1.884340643882751464843750 -1.606892466545104980468750 -1.418456196784973144531250 2.861516714096069335937500 0.169990539550781250000000 -2.797128438949584960937500 0.493442267179489135742188 -1.570994496345520019531250 0.200639635324478149414062 -1.463644266128540039062500 -1.232642769813537597656250 0.260680139064788818359375 4.365488529205322265625000 1.767453312873840332031250 -3.297101259231567382812500 -2.305454015731811523437500 -1.054364442825317382812500 -2.785171985626220703125000 -1.751072645187377929687500 1.725615262985229492187500 1.871423006057739257812500 3.951569080352783203125000 -0.258311331272125244140625 -0.132930219173431396484375 -1.256998896598815917968750 1.766341447830200195312500 1.560039639472961425781250 -0.493073344230651855468750 -0.067812681198120117187500 0.866428792476654052734375 0.051964949816465377807617 -0.767352283000946044921875 -0.064089603722095489501953 -0.789723098278045654296875 4.674724102020263671875000 3.638911724090576171875000 0.855295538902282714843750 -3.801684617996215820312500 -2.763086080551147460937500 -1.512639522552490234375000 -1.692983269691467285156250 -1.108713865280151367187500 2.019742965698242187500000 2.337986946105957031250000 1.025079250335693359375000 -0.431636363267898559570312 4.330295562744140625000000 3.652465820312500000000000 2.492237091064453125000000 2.334646701812744140625000 -5.163926601409912109375000 -1.462227106094360351562500 -0.179688081145286560058594 -0.440976142883300781250000 0.612562000751495361328125 0.888214290142059326171875 5.542683601379394531250000 -3.140200138092041015625000 -0.935829102993011474609375 -2.761940717697143554687500 -2.656143426895141601562500 3.734759330749511718750000 -2.973994016647338867187500 -7.098844528198242187500000 -5.911194801330566406250000 -2.582871437072753906250000 -2.789432048797607421875000 -2.455451965332031250000000 -0.840651631355285644531250 -1.747631192207336425781250 1.382892370223999023437500 3.726806163787841796875000 1.919184923171997070312500 1.179252982139587402343750 -3.337528467178344726562500 -6.249465942382812500000000 -3.586694240570068359375000 0.639744997024536132812500 4.150386333465576171875000 3.331611156463623046875000 4.951487541198730468750000 1.550984025001525878906250 -5.657611846923828125000000 -9.276929855346679687500000 -7.983227729797363281250000 -1.864051699638366699218750 -0.177433416247367858886719 1.813112020492553710937500 5.309275627136230468750000 4.801650047302246093750000 2.271174430847167968750000 -2.745862722396850585937500 -4.285262107849121093750000 -0.342251837253570556640625 0.608032584190368652343750 -0.614071607589721679687500 1.145511984825134277343750 2.195178985595703125000000 1.215997934341430664062500 -0.937756836414337158203125 -3.117479085922241210937500 -2.808557510375976562500000 0.775210499763488769531250 2.730110883712768554687500 3.968688726425170898437500 -0.474019557237625122070312 3.741561651229858398437500 -0.171271070837974548339844 -0.498867183923721313476562 -2.378470897674560546875000 1.607186675071716308593750 2.697747230529785156250000 2.285574913024902343750000 2.162033557891845703125000 4.103746891021728515625000 1.046234846115112304687500 0.985222697257995605468750 -2.487594127655029296875000 -2.724893808364868164062500 -5.759021759033203125000000 0.638400197029113769531250 1.028076410293579101562500 3.198027372360229492187500 3.475704431533813476562500 2.694983482360839843750000 -0.022218588739633560180664 1.366372227668762207031250 -1.742530465126037597656250 1.208007574081420898437500 -1.170821666717529296875000 0.167758539319038391113281 0.386533647775650024414062 -0.688672304153442382812500 0.487417966127395629882812 -1.536800503730773925781250 1.363839149475097656250000 3.782723188400268554687500 0.729317843914031982421875 -0.589969158172607421875000 -0.425637453794479370117188 -3.059853076934814453125000 -2.749162197113037109375000 -3.268965482711791992187500 -5.252855300903320312500000 -2.597520828247070312500000 -0.767618477344512939453125 0.119658872485160827636719 -1.081928253173828125000000 -2.014570236206054687500000 0.265458226203918457031250 -3.700731515884399414062500 -3.316771268844604492187500 -0.669356465339660644531250 -1.553172707557678222656250 -0.029615076258778572082520 -2.311621904373168945312500 -0.693207561969757080078125 -0.763873517513275146484375 -3.323041677474975585937500 -2.428410530090332031250000 0.124385870993137359619141 0.071680754423141479492188 1.392176389694213867187500 1.017410039901733398437500 0.749231278896331787109375 -0.910620331764221191406250 -3.781196355819702148437500 1.317446351051330566406250 4.186553001403808593750000 -7.151477336883544921875000 1.367335557937622070312500 -1.173975586891174316406250 2.872439384460449218750000 5.507830142974853515625000 -3.666893243789672851562500 1.327568411827087402343750 3.329729795455932617187500 2.018807172775268554687500 1.451829910278320312500000 3.815560817718505859375000 0.773709952831268310546875 7.184688568115234375000000 4.185669422149658203125000 -0.642937958240509033203125 5.055973052978515625000000 7.358327865600585937500000 3.065483808517456054687500 -0.695079505443572998046875 1.669976830482482910156250 -1.443109035491943359375000 0.724026620388031005859375 2.940105199813842773437500 4.932981014251708984375000 3.526016712188720703125000 -1.405434370040893554687500 -1.961084604263305664062500 1.564937591552734375000000 -0.393023759126663208007812 3.460481882095336914062500 0.329927414655685424804688 0.762422680854797363281250 3.859457731246948242187500 2.983875989913940429687500 -0.840617120265960693359375 -1.981529116630554199218750 -1.915829062461853027343750 2.267357826232910156250000 1.317126035690307617187500 -0.982151687145233154296875 -3.086913824081420898437500 0.122484639286994934082031 -1.109794616699218750000000 -5.675870418548583984375000 -2.097731828689575195312500 -4.210055828094482421875000 -6.086497306823730468750000 -1.527315020561218261718750 -5.168333053588867187500000 -0.549134254455566406250000 -1.419713973999023437500000 -0.979416966438293457031250 1.092236399650573730468750 -6.019784927368164062500000 -10.764184951782226562500000 -6.821804523468017578125000 -5.903525352478027343750000 -6.887442588806152343750000 -6.245900154113769531250000 -2.895204782485961914062500 2.031913280487060546875000 -6.831527233123779296875000 -7.641136169433593750000000 -4.315584659576416015625000 -2.331622362136840820312500 -3.415391206741333007812500 0.235177382826805114746094 1.171787381172180175781250 6.177542209625244140625000 5.401681900024414062500000 1.520427823066711425781250 3.075799465179443359375000 -2.964987993240356445312500 -8.779353141784667968750000 -10.651827812194824218750000 -4.289080142974853515625000 -7.622408390045166015625000 3.237944602966308593750000 0.007087116595357656478882 1.133553266525268554687500 2.929846525192260742187500 1.501817703247070312500000 -4.276124000549316406250000 -5.270832538604736328125000 -1.792617559432983398437500 1.617150664329528808593750 -1.005802869796752929687500 3.918114662170410156250000 3.089288711547851562500000 0.140443354845046997070312 -2.865361213684082031250000 -1.273876070976257324218750 -1.660538911819458007812500 -2.370992660522460937500000 0.561257898807525634765625 1.364216923713684082031250 -0.756122946739196777343750 -0.107803829014301300048828 -0.803878545761108398437500 0.238035514950752258300781 1.322174429893493652343750 -1.650478005409240722656250 0.787316322326660156250000 4.208796977996826171875000 1.902392983436584472656250 3.725283145904541015625000 5.276533603668212890625000 0.953641057014465332031250 1.313849925994873046875000 -1.500065445899963378906250 -0.729988396167755126953125 2.475033760070800781250000 5.692358016967773437500000 4.586899280548095703125000 1.358275890350341796875000 -0.634317338466644287109375 -2.321689605712890625000000 1.496648550033569335937500 1.845336794853210449218750 3.635626316070556640625000 2.238820552825927734375000 -1.386234045028686523437500 -2.511608600616455078125000 -2.516816616058349609375000 -3.158044815063476562500000 -0.445804566144943237304688 -1.353852510452270507812500 4.849716663360595703125000 4.282852649688720703125000 -0.589524269104003906250000 -3.944040775299072265625000 -5.454075813293457031250000 -5.308752059936523437500000 -2.932090997695922851562500 -5.240755558013916015625000 3.493212461471557617187500 1.001046061515808105468750 -2.770448207855224609375000 -4.390147209167480468750000 -1.623084425926208496093750 -2.145900964736938476562500 2.394333600997924804687500 -3.040816307067871093750000 -2.920917510986328125000000 -4.908350467681884765625000 -3.399586915969848632812500 -3.147366285324096679687500 -2.601237297058105468750000 -2.187373638153076171875000 2.776977300643920898437500 -1.230822563171386718750000 0.772996425628662109375000 -0.720874547958374023437500 1.657591104507446289062500 1.565775632858276367187500 -2.000484704971313476562500 -2.818434715270996093750000 1.129889011383056640625000 1.159484624862670898437500 -0.140201196074485778808594 -3.089186429977416992187500 -0.929903328418731689453125 -5.367799758911132812500000 -1.623969316482543945312500 -1.905250787734985351562500 3.554993867874145507812500 2.630450963973999023437500 2.548423051834106445312500 2.663923740386962890625000 2.250367879867553710937500 0.227495968341827392578125 0.933636844158172607421875 -1.445048451423645019531250 0.976637661457061767578125 3.188609361648559570312500 2.501449584960937500000000 2.790340900421142578125000 1.942595124244689941406250 1.943580746650695800781250 0.446099936962127685546875 -0.619834184646606445312500 -2.300953626632690429687500 -1.228651046752929687500000 -2.061033010482788085937500 0.360971152782440185546875 -2.118697881698608398437500 -1.291375160217285156250000 -3.450004100799560546875000 -2.079472064971923828125000 3.573218822479248046875000 0.389577895402908325195312 5.043207645416259765625000 1.516458868980407714843750 -1.867392539978027343750000 -4.726790904998779296875000 -5.651497840881347656250000 -0.197680100798606872558594 4.591090202331542968750000 1.961058735847473144531250 6.553024291992187500000000 1.208357095718383789062500 0.383513838052749633789062 -3.383574247360229492187500 -4.510767936706542968750000 -3.205580711364746093750000 -0.770015001296997070312500 -3.091498136520385742187500 -1.523936867713928222656250 4.360765457153320312500000 -1.540749311447143554687500 0.618394851684570312500000 -1.211237788200378417968750 -3.308519840240478515625000 1.750050306320190429687500 2.794911146163940429687500 3.751400947570800781250000 0.826645016670227050781250 -3.129204750061035156250000 -0.075552143156528472900391 -5.468642711639404296875000 -1.812771081924438476562500 6.031262874603271484375000 3.336697340011596679687500 4.441925048828125000000000 4.313526630401611328125000 4.240652561187744140625000 4.573878765106201171875000 -0.416478902101516723632812 -2.762490272521972656250000 1.567447185516357421875000 -1.704795718193054199218750 2.210978507995605468750000 3.174149751663208007812500 5.047262191772460937500000 3.707347631454467773437500 1.824304103851318359375000 1.936551213264465332031250 -0.031987950205802917480469 -0.709611713886260986328125 -0.482296854257583618164062 0.133337080478668212890625 -0.358711153268814086914062 -2.235005378723144531250000 -2.837772130966186523437500 -2.325482606887817382812500 2.805351495742797851562500 -0.769007802009582519531250 4.946353435516357421875000 5.799762725830078125000000 1.880268454551696777343750 1.184231638908386230468750 1.413572549819946289062500 -6.654784679412841796875000 0.147235929965972900390625 0.350905537605285644531250 -3.308116912841796875000000 1.263296723365783691406250 0.620794177055358886718750 -0.196392253041267395019531 -4.350800514221191406250000 -5.220063209533691406250000 3.249704122543334960937500 5.805393218994140625000000 2.796147823333740234375000 0.078133605420589447021484 -0.845776975154876708984375 -0.004075820557773113250732 0.797070622444152832031250 0.081327088177204132080078 0.322043776512145996093750 0.402618676424026489257812 1.368591666221618652343750 2.999486923217773437500000 2.074100255966186523437500 -3.442406177520751953125000 -1.531867623329162597656250 -2.811066150665283203125000 -4.171176910400390625000000 0.483956992626190185546875 -0.599652588367462158203125 -2.213368654251098632812500 -1.566289663314819335937500 -3.679560661315917968750000 -5.451225757598876953125000 -6.329439640045166015625000 -1.093199372291564941406250 -1.376787781715393066406250 -1.695473670959472656250000 -1.827919363975524902343750 3.329355716705322265625000 4.594209671020507812500000 2.278623342514038085937500 4.307341575622558593750000 -4.377828121185302734375000 -1.977236628532409667968750 -2.683470249176025390625000 -1.472854614257812500000000 -0.326934248208999633789062 1.298043131828308105468750 2.474399089813232421875000 2.723351240158081054687500 -0.854651749134063720703125 -1.730021119117736816406250 0.535521447658538818359375 0.760606586933135986328125 -6.082921504974365234375000 -4.719023704528808593750000 -3.853620529174804687500000 -4.736152648925781250000000 4.626835823059082031250000 -0.389852523803710937500000 -0.816978633403778076171875 -4.783216476440429687500000 -3.562875032424926757812500 -4.402663230895996093750000 -0.616266310214996337890625 -0.652827918529510498046875 3.381093978881835937500000 4.066575050354003906250000 0.372529059648513793945312 -2.407215356826782226562500 -3.403776645660400390625000 -4.175605297088623046875000 -7.651494026184082031250000 -8.815361022949218750000000 1.973973155021667480468750 3.005026578903198242187500 4.743988513946533203125000 4.049761295318603515625000 3.717781066894531250000000 2.363624572753906250000000 -5.194946289062500000000000 -9.019972801208496093750000 1.652171730995178222656250 -0.229053288698196411132812 1.469495415687561035156250 4.483557701110839843750000 5.663350105285644531250000 5.112852573394775390625000 2.901675939559936523437500 0.953398466110229492187500 0.315911829471588134765625 -0.484694749116897583007812 -4.077991485595703125000000 -3.126963138580322265625000 -4.409239292144775390625000 -7.139380455017089843750000 -5.364787578582763671875000 -3.349704980850219726562500 0.682673335075378417968750 0.089568264782428741455078 1.349222183227539062500000 0.128081664443016052246094 2.065954446792602539062500 2.747009992599487304687500 -0.042748533189296722412109 -3.325510025024414062500000 -0.087657138705253601074219 0.469087690114974975585938 0.096345782279968261718750 -0.510316967964172363281250 -1.441871404647827148437500 -2.480544805526733398437500 -3.326693058013916015625000 -1.847232103347778320312500 -2.714956283569335937500000 -3.140575647354125976562500 -2.958476781845092773437500 -2.997513771057128906250000 -3.481299400329589843750000 -2.476335763931274414062500 -0.328003287315368652343750 -1.615167379379272460937500 0.369209706783294677734375 0.564040303230285644531250 2.893358945846557617187500 2.167521238327026367187500 0.099772959947586059570312 1.577922940254211425781250 -2.035097599029541015625000 -0.469019174575805664062500 1.921831130981445312500000 1.347172975540161132812500 -1.976484298706054687500000 -4.879519939422607421875000 -5.951342582702636718750000 -4.434903144836425781250000 -6.569408893585205078125000 -3.468432664871215820312500 0.488604396581649780273438 0.406057178974151611328125 1.708023905754089355468750 2.961858987808227539062500 0.987382829189300537109375 3.979053258895874023437500 3.223079204559326171875000 0.827798783779144287109375 -2.331854581832885742187500 0.968740463256835937500000 -3.662121057510375976562500 0.258525282144546508789062 -1.612296342849731445312500 -2.196265220642089843750000 0.392416805028915405273438 2.426790714263916015625000 3.105459451675415039062500 0.114810734987258911132812 4.692470073699951171875000 3.943625926971435546875000 4.563491344451904296875000 2.851130008697509765625000 -0.699587702751159667968750 2.280636072158813476562500 -0.648450195789337158203125 -1.913679957389831542968750 0.263157427310943603515625 -3.418809652328491210937500 -6.117313861846923828125000 0.195591568946838378906250 -4.157519817352294921875000 -0.733311891555786132812500 -2.078530788421630859375000 0.556704044342041015625000 -4.062999248504638671875000 -3.051044464111328125000000 -4.087733268737792968750000 -2.223385572433471679687500 