-10.450834274291992187500000 -7.623522281646728515625000 -11.316059112548828125000000 0.106343537569046020507812 -2.951645374298095703125000 0.276131272315979003906250 11.929211616516113281250000 6.656105041503906250000000 12.358417510986328125000000 -5.465710639953613281250000 1.017095088958740234375000 7.997028350830078125000000 -6.492210865020751953125000 -1.566622138023376464843750 3.348218202590942382812500 -6.712559223175048828125000 -3.436894893646240234375000 2.585060834884643554687500 6.219748973846435546875000 3.461642026901245117187500 -0.864632248878479003906250 1.769733309745788574218750 -7.863406181335449218750000 -6.624437332153320312500000 1.042072534561157226562500 -1.037402987480163574218750 0.480567425489425659179688 5.826829433441162109375000 10.001958847045898437500000 6.061329841613769531250000 -1.228579044342041015625000 2.138543367385864257812500 2.062075614929199218750000 -5.872710227966308593750000 -12.958705902099609375000000 -7.310300350189208984375000 
-3.899455547332763671875000 2.089703559875488281250000 3.330116510391235351562500 0.749325513839721679687500 
0.015954928472638130187988 0.095840297639369964599609 -0.652989506721496582031250 -0.760344803333282470703125 -0.370606094598770141601562 -0.150137990713119506835938 -0.013364052399992942810059 -0.001537641044706106185913 0.011636801064014434814453 -0.033260658383369445800781 -0.738377749919891357421875 -0.851756274700164794921875 -0.163070231676101684570312 -0.105052299797534942626953 -0.055670633912086486816406 -0.025000853464007377624512 0.103900805115699768066406 -0.112758502364158630371094 -0.000787504774052649736404 -0.014714851044118404388428 -0.015323818661272525787354 -0.007634229026734828948975 0.035098630934953689575195 -0.047610130161046981811523 -0.234197542071342468261719 -0.052924748510122299194336 -0.329329222440719604492188 -0.701884031295776367187500 -0.432964295148849487304688 0.085875384509563446044922 0.080605052411556243896484 -0.015611693263053894042969 0.163335964083671569824219 -0.012013253755867481231689 0.244295328855514526367188 -0.050400305539369583129883 0.408871352672576904296875 -0.084103845059871673583984 0.032618474215269088745117 0.059390868991613388061523 0.107532456517219543457031 0.210990369319915771484375 -0.049115937203168869018555 0.675665259361267089843750 0.044687088578939437866211 -0.035762958228588104248047 -0.155541181564331054687500 -0.119578927755355834960938 0.289469569921493530273438 0.340489923954010009765625 -0.668579101562500000000000 -0.737669110298156738281250 0.260593473911285400390625 0.371669024229049682617188 0.041454028338193893432617 -0.024137228727340698242188 -0.118516005575656890869141 -0.317637056112289428710938 -0.347398936748504638671875 0.410288602113723754882812 0.387258589267730712890625 -0.126665085554122924804688 0.101420648396015167236328 0.006870252545922994613647 -0.408517062664031982421875 -0.344210147857666015625000 0.755384504795074462890625 0.697986662387847900390625 -0.348107546567916870117188 -0.061693869531154632568359 -0.036161553114652633666992 0.008248731493949890136719 -0.395761966705322265625000 -0.057663615792989730834961 0.367063015699386596679688 0.635982751846313476562500 0.082420885562896728515625 -0.164487466216087341308594 0.022188534960150718688965 -0.160324335098266601562500 -0.091500021517276763916016 -0.136851444840431213378906 0.926869571208953857421875 1.220945119857788085937500 -0.047654416412115097045898 0.006698634475469589233398 -0.036604437977075576782227 -0.149252220988273620605469 0.152440994977951049804688 0.197172373533248901367188 0.356610924005508422851562 0.680979847908020019531250 -0.099914841353893280029297 0.120819009840488433837891 -0.049558822065591812133789 0.017958983778953552246094 -0.176335498690605163574219 0.057309038937091827392578 0.066833332180976867675781 0.139435663819313049316406 -0.412755697965621948242188 -0.266897946596145629882812 -0.116250813007354736328125 -0.120931319892406463623047 -0.159463897347450256347656 -0.262108564376831054687500 0.442798048257827758789062 -0.109719865024089813232422 -1.302705764770507812500000 0.017266184091567993164062 -0.014953142032027244567871 -0.093610204756259918212891 -0.080766014754772186279297 -0.032355386763811111450195 0.179600968956947326660156 -0.317186206579208374023438 -0.001036617322824895381927 -0.050369910895824432373047 -0.056111697107553482055664 0.002270523691549897193909 -0.351147115230560302734375 -0.052165918052196502685547 0.146184310317039489746094 0.054615024477243423461914 0.021307205781340599060059 -0.305648207664489746093750 -0.165777146816253662109375 0.117339305579662322998047 0.216391965746879577636719 -0.185261130332946777343750 0.011429152451455593109131 0.299988061189651489257812 -0.350058615207672119140625 -0.176008954644203186035156 0.603894650936126708984375 -0.048410627990961074829102 0.181016013026237487792969 0.220528230071067810058594 -0.123543702065944671630859 -0.264938652515411376953125 0.331989675760269165039062 0.544680774211883544921875 -0.132033929228782653808594 0.049444694072008132934570 0.139109119772911071777344 0.197452217340469360351562 -0.061935123056173324584961 0.163273617625236511230469 -1.165991306304931640625000 0.111243754625320434570312 0.531618893146514892578125 0.114944621920585632324219 0.067758552730083465576172 -0.051703311502933502197266 0.882983684539794921875000 -1.579617738723754882812500 -0.992703557014465332031250 1.284419059753417968750000 0.331989675760269165039062 -0.066234663128852844238281 0.073962949216365814208984 0.097909741103649139404297 -1.505600452423095703125000 0.044247150421142578125000 1.844338774681091308593750 -0.732771992683410644531250 -0.417109668254852294921875 0.152388706803321838378906 0.013150328770279884338379 -0.432130843400955200195312 0.491997808218002319335938 0.193751350045204162597656 -1.132901191711425781250000 1.217368006706237792968750 -0.307389795780181884765625 -0.120604775846004486083984 -0.040845613926649093627930 0.150429427623748779296875 -1.102423429489135742187500 0.159355044364929199218750 1.807765483856201171875000 -0.800258398056030273437500 -0.163817852735519409179688 -0.072058089077472686767578 -0.088385447859764099121094 0.164362102746963500976562 -0.798081398010253906250000 0.301729649305343627929688 1.279194355010986328125000 -0.444321930408477783203125 -0.289320856332778930664062 0.045852672308683395385742 -0.007717428263276815414429 -0.103091761469841003417969 0.026381509378552436828613 0.254382252693176269531250 -0.481987446546554565429688 -0.768258750438690185546875 -0.193403542041778564453125 0.391188800334930419921875 -0.129138559103012084960938 -0.012452864088118076324463 -0.033988635987043380737305 -0.055136442184448242187500 0.450828671455383300781250 -1.558912873268127441406250 -0.404577344655990600585938 0.360760301351547241210938 -0.077896960079669952392578 -0.031736925244331359863281 0.045429751276969909667969 0.015670677646994590759277 -0.084956370294094085693359 0.063534706830978393554688 -0.150925368070602416992188 -0.079114101827144622802734 -0.195229262113571166992188 -0.121166288852691650390625 -0.077166676521301269531250 0.002519860165193676948547 -0.039709191769361495971680 0.058757435530424118041992 -0.212756067514419555664062 0.424051582813262939453125 0.243184581398963928222656 0.096093207597732543945312 0.215798929333686828613281 -0.231013178825378417968750 0.400925934314727783203125 -0.148247659206390380859375 0.095241203904151916503906 0.084712944924831390380859 -0.157741352915763854980469 -0.040104761719703674316406 -0.088668651878833770751953 0.223345190286636352539062 -0.217502921819686889648438 0.136197969317436218261719 0.095606349408626556396484 -0.311587840318679809570312 -0.035783916711807250976562 0.039039764553308486938477 0.972251415252685546875000 0.354674607515335083007812 -0.545765578746795654296875 -1.443041205406188964843750 -0.137658536434173583984375 1.008765697479248046875000 0.042173899710178375244141 0.085930086672306060791016 -0.541870713233947753906250 0.197176679968833923339844 0.930381834506988525390625 -0.835444927215576171875000 -0.347615182399749755859375 0.169304177165031433105469 -0.096397489309310913085938 0.045368894934654235839844 -0.017085602506995201110840 -0.416261881589889526367188 -0.574976921081542968750000 1.432330369949340820312500 0.397031068801879882812500 -1.090557456016540527343750 -0.077896960079669952392578 -0.017785457894206047058105 -0.477605730295181274414062 -0.913341879844665527343750 1.626099109649658203125000 0.584227204322814941406250 -0.553068399429321289062500 -0.263389110565185546875000 -0.075584396719932556152344 -0.093902349472045898437500 0.030413286760449409484863 -0.760955929756164550781250 -0.493915408849716186523438 2.325224399566650390625000 0.550634145736694335937500 -1.444014906883239746093750 -0.067490413784980773925781 0.018956955522298812866211 -0.289922744035720825195312 0.278481632471084594726562 -0.468112051486968994140625 0.063717283308506011962891 1.602729916572570800781250 -0.897275626659393310546875 0.217137098312377929687500 -0.065528623759746551513672 -0.695281565189361572265625 -0.183923006057739257812500 0.128842979669570922851562 0.300864279270172119140625 0.126351922750473022460938 -0.113273881375789642333984 0.282596528530120849609375 0.170637369155883789062500 -0.228208467364311218261719 -0.623871266841888427734375 -0.317194551229476928710938 -0.059992946684360504150391 0.152092844247817993164062 0.240110173821449279785156 -0.124206848442554473876953 0.010526443831622600555420 0.100887790322303771972656 0.115072973072528839111328 -0.097566381096839904785156 -0.191949754953384399414062 -0.008666801266372203826904 0.139914348721504211425781 0.274569779634475708007812 0.197347030043601989746094 0.426801025867462158203125 0.324390918016433715820312 0.201222017407417297363281 0.222811177372932434082031 0.215061217546463012695312 0.298373222351074218750000 -0.151400879025459289550781 -0.106907844543457031250000 -0.183784618973731994628906 -0.370060294866561889648438 -0.199422910809516906738281 -0.133340716361999511718750 -0.007749953772872686386108 -0.031622577458620071411133 -0.281627774238586425781250 -0.367292463779449462890625 -0.383345931768417358398438 -0.422926038503646850585938 -0.636049807071685791015625 -0.644906878471374511718750 -0.638264060020446777343750 -0.431506365537643432617188 0.077430345118045806884766 0.097082011401653289794922 0.091753914952278137207031 0.276092112064361572265625 0.256163656711578369140625 0.137907654047012329101562 -0.047260880470275878906250 -0.071133501827716827392578 -0.017731478437781333923340 0.378917396068572998046875 0.609478533267974853515625 0.373381704092025756835938 0.017333602532744407653809 -0.181293562054634094238281 -0.133755892515182495117188 -0.349578261375427246093750 0.133479118347167968750000 -0.176588237285614013671875 -0.195547938346862792968750 -0.342658668756484985351562 -0.148356258869171142578125 0.076254010200500488281250 0.009488503448665142059326 -0.038299996405839920043945 -0.145726814866065979003906 0.287025064229965209960938 0.412131458520889282226562 0.486032813787460327148438 0.345149725675582885742188 0.141713440418243408203125 -0.038472983986139297485352 -0.241909265518188476562500 0.013398078270256519317627 0.179771244525909423828125 -0.140813887119293212890625 -0.005462160333991050720215 0.526443302631378173828125 0.255194902420043945312500 0.169807016849517822265625 -0.059300985187292098999023 0.073070995509624481201172 0.012117952108383178710938 -0.357605010271072387695312 -1.042368769645690917968750 -0.027730302885174751281738 0.376426339149475097656250 0.043074518442153930664062 0.170775771141052246093750 
-1.990673780441284179687500 0.427292913198471069335938 -0.025457285344600677490234 -0.722029924392700195312500 
-0.028772160410881042480469 0.085757538676261901855469 0.048441562801599502563477 -0.032019343227148056030273 0.108594276010990142822266 0.090122602880001068115234 -0.013221619650721549987793 0.090601697564125061035156 0.062707871198654174804688 -0.003729601157829165458679 0.052141223102807998657227 -0.006637426093220710754395 -0.036411020904779434204102 0.075430437922477722167969 -0.019709328189492225646973 -0.007984872907400131225586 0.043863572180271148681641 -0.004568012896925210952759 -0.002694894792512059211731 0.065848588943481445312500 0.004784269724041223526001 -0.022663731127977371215820 0.098480105400085449218750 -0.029597263783216476440430 0.021279687061905860900879 0.078038826584815979003906 -0.019682712852954864501953 -0.009701620787382125854492 0.070586279034614562988281 0.028213219717144966125488 0.015264416113495826721191 0.123818770051002502441406 0.071917094290256500244141 -0.010420260019600391387939 0.139788508415222167968750 0.092092208564281463623047 -0.023627620190382003784180 0.278452903032302856445312 0.033506009727716445922852 -0.242655351758003234863281 -0.346579730510711669921875 -0.258138716220855712890625 0.026739777997136116027832 0.108879052102565765380859 0.114143393933773040771484 0.017310407012701034545898 0.055461425334215164184570 -0.049113247543573379516602 -0.231507331132888793945312 -0.385473936796188354492188 -0.082619257271289825439453 -0.006998482625931501388550 -0.064101144671440124511719 0.070604160428047180175781 0.091785408556461334228516 0.036943316459655761718750 -0.055987861007452011108398 -0.322054058313369750976562 -0.375812321901321411132812 -0.008422952145338058471680 -0.050228048115968704223633 -0.052426688373088836669922 0.042362496256828308105469 0.043632134795188903808594 0.142075389623641967773438 0.054160822182893753051758 0.000135842361487448215485 -0.189144834876060485839844 0.068374559283256530761719 -0.058000698685646057128906 -0.223827585577964782714844 -0.013516981154680252075195 -0.078363463282585144042969 -0.183135613799095153808594 0.032098498195409774780273 -0.117644719779491424560547 -0.400244206190109252929688 0.384850203990936279296875 0.055537864565849304199219 -0.053779497742652893066406 0.082875497639179229736328 0.013776641339063644409180 -0.029411179944872856140137 0.035001460462808609008789 -0.025811504572629928588867 0.036361709237098693847656 0.113398097455501556396484 -0.033060621470212936401367 0.019126391038298606872559 0.015825305134057998657227 -0.017616849392652511596680 0.022178651764988899230957 0.025877857580780982971191 -0.076173797249794006347656 0.127531394362449645996094 0.055935986340045928955078 0.001160149113275110721588 0.008028770796954631805420 0.042930703610181808471680 -0.041504103690385818481445 -0.000291851640213280916214 -0.088780954480171203613281 -0.113464452326297760009766 -0.253735721111297607421875 0.113331742584705352783203 -0.126469731330871582031250 -0.186055153608322143554688 0.153276547789573669433594 -0.018429066985845565795898 0.014176204800605773925781 -0.071571968495845794677734 0.065139062702655792236328 -0.131421759724617004394531 -0.358908146619796752929688 -0.038835652172565460205078 -0.007916040718555450439453 -0.082055211067199707031250 0.000622814870439469814301 -0.095969334244728088378906 -0.135233849287033081054688 0.046412181109189987182617 -0.246451526880264282226562 -0.300773799419403076171875 -0.024194849655032157897949 -0.083198837935924530029297 -0.137330502271652221679688 -0.037692025303840637207031 -0.125703617930412292480469 -0.003243253566324710845947 0.032259799540042877197266 -0.370916217565536499023438 -0.180693000555038452148438 0.000622442632447928190231 -0.085152529180049896240234 -0.077623657882213592529297 -0.032903090119361877441406 0.040241360664367675781250 0.140666067600250244140625 0.074288077652454376220703 0.073335058987140655517578 0.021097527816891670227051 -0.007439529523253440856934 0.093967989087104797363281 0.191938668489456176757812 
1.580149531364440917968750 1.609580397605895996093750 0.489271491765975952148438 1.866126656532287597656250 
0.029745867475867271423340 -0.002633083611726760864258 0.231073051691055297851562 -0.358482390642166137695312 0.293118059635162353515625 0.093067541718482971191406 -0.901823222637176513671875 0.153197601437568664550781 -0.073279514908790588378906 0.269372433423995971679688 -0.044267721474170684814453 -0.002146362094208598136902 0.249456763267517089843750 -0.162772446870803833007812 0.000527614145539700984955 0.106855325400829315185547 -0.154857233166694641113281 0.059459816664457321166992 0.106280833482742309570312 -0.002818596549332141876221 -0.095493167638778686523438 0.388355910778045654296875 0.119877122342586517333984 -0.194816276431083679199219 0.423591345548629760742188 0.301799267530441284179688 -0.052757423371076583862305 0.124983705580234527587891 0.087641790509223937988281 -0.051576524972915649414062 0.357716381549835205078125 -0.293118059635162353515625 0.014250568114221096038818 0.296692669391632080078125 -0.318906337022781372070312 -0.068236760795116424560547 -0.271156966686248779296875 -0.189129561185836791992188 -0.197196245193481445312500 0.146172076463699340820312 0.375732213258743286132812 0.126248359680175781250000 0.263187497854232788085938 0.239279016852378845214844 0.134120658040046691894531 0.069635830819606781005859 -0.159875705838203430175781 0.035571131855249404907227 0.011140275746583938598633 -0.052481994032859802246094 0.061423372477293014526367 -0.057584412395954132080078 0.175037175416946411132812 0.194766521453857421875000 -0.039896033704280853271484 0.216536819934844970703125 -0.101173624396324157714844 0.097188882529735565185547 0.277765810489654541015625 -0.085720591247081756591797 -0.031221928074955940246582 0.206429183483123779296875 0.033603053539991378784180 0.258522421121597290039062 0.182520717382431030273438 0.128483697772026062011719 0.200597852468490600585938 0.098841093480587005615234 0.207789823412895202636719 0.166776120662689208984375 0.063610121607780456542969 0.073523387312889099121094 -0.062604501843452453613281 -0.236197933554649353027344 -0.116170816123485565185547 -0.137741953134536743164062 -0.312841743230819702148438 -0.037418089807033538818359 -0.012352187186479568481445 0.015274534001946449279785 0.067545376718044281005859 -0.033622052520513534545898 0.012096105143427848815918 0.031513143330812454223633 0.025698576122522354125977 0.236559450626373291015625 0.095262482762336730957031 0.079234763979911804199219 0.169194847345352172851562 0.084476910531520843505859 -0.052029825747013092041016 -0.082910291850566864013672 0.059471264481544494628906 -0.008661595173180103302002 -0.128221735358238220214844 0.045853730291128158569336 0.104963466525077819824219 -0.013203283771872520446777 0.014378247782588005065918 -0.012480228208005428314209 0.091888226568698883056641 -0.064653158187866210937500 -0.044558256864547729492188 0.138344496488571166992188 -0.110446631908416748046875 -0.081464186310768127441406 0.003091812832280993461609 -0.079053997993469238281250 0.205834031105041503906250 -0.027063913643360137939453 0.360417157411575317382812 0.190648585557937622070312 -0.871739745140075683593750 -0.000288480921881273388863 -0.007199742365628480911255 -0.608367085456848144531250 -0.356620818376541137695312 -0.160870864987373352050781 -0.091349974274635314941406 0.018981812521815299987793 -0.320555359125137329101562 -0.354248076677322387695312 -0.004604572430253028869629 -0.057983506470918655395508 -0.363738983869552612304688 -0.207613572478294372558594 0.192190855741500854492188 0.018447948619723320007324 -0.003996561281383037567139 0.391025334596633911132812 0.152803599834442138671875 0.150786772370338439941406 0.137262240052223205566406 0.023282378911972045898438 0.130025416612625122070312 0.008274883963167667388916 -0.112704515457153320312500 -0.058962255716323852539062 0.046208851039409637451172 -0.064597479999065399169922 0.075867936015129089355469 0.050746690481901168823242 0.034107945859432220458984 0.320318102836608886718750 0.036273781210184097290039 0.264266401529312133789062 -0.069130323827266693115234 0.114693500101566314697266 0.092383258044719696044922 0.165441438555717468261719 -0.189165711402893066406250 -0.320041984319686889648438 0.138417765498161315917969 0.163713186979293823242188 0.111865438520908355712891 0.197964116930961608886719 0.159628212451934814453125 0.288619130849838256835938 0.180681541562080383300781 0.070112295448780059814453 0.284534156322479248046875 -0.039749938994646072387695 -0.057032521814107894897461 -0.076828934252262115478516 -0.005970346275717020034790 -0.110529966652393341064453 -0.157742843031883239746094 -0.019462544471025466918945 -0.335910558700561523437500 -0.160885125398635864257812 0.005641388241201639175415 -0.044856157153844833374023 -0.002788780257105827331543 0.029498225077986717224121 0.211475953459739685058594 0.087355598807334899902344 0.025864955037832260131836 0.249811857938766479492188 0.252168565988540649414062 -0.089633755385875701904297 0.227144509553909301757812 0.054098863154649734497070 -1.004753828048706054687500 0.263493299484252929687500 0.539432883262634277343750 -0.659652531147003173828125 0.032972019165754318237305 0.115552343428134918212891 -0.245389625430107116699219 -0.000585076573770493268967 -0.056715410202741622924805 0.035075865685939788818359 0.055831443518400192260742 0.004649673588573932647705 -0.075384825468063354492188 0.034651558846235275268555 0.078213520348072052001953 -0.095751456916332244873047 0.001857438590377569198608 0.004523708019405603408813 -0.113784410059452056884766 -0.049325436353683471679688 0.257835894823074340820312 0.242419481277465820312500 -0.169863358139991760253906 0.209748014807701110839844 0.117603152990341186523438 -0.374802589416503906250000 0.121846199035644531250000 0.292204588651657104492188 -0.230963259935379028320312 -0.027898041531443595886230 0.342838287353515625000000 0.000412426481489092111588 -0.117532432079315185546875 0.045153103768825531005859 0.015780812129378318786621 -0.021862998604774475097656 0.015493140555918216705322 0.009369856677949428558350 0.244208067655563354492188 0.013093141838908195495605 0.057895854115486145019531 0.406355887651443481445312 -0.075879402458667755126953 -0.077260226011276245117188 0.028504090383648872375488 0.030723268166184425354004 0.088175281882286071777344 0.015189031139016151428223 0.061117768287658691406250 0.112898558378219604492188 0.002527395728975534439087 0.055725991725921630859375 0.077194467186927795410156 0.028027379885315895080566 0.088701315224170684814453 -0.037315044552087783813477 0.047835584729909896850586 0.052109554409980773925781 -0.121380746364593505859375 0.008301364257931709289551 0.032712306827306747436523 -0.179769739508628845214844 -0.128942385315895080566406 -0.036065731197595596313477 -0.230794370174407958984375 -0.260251879692077636718750 0.030246555805206298828125 -0.137293055653572082519531 -0.184109464287757873535156 0.064405441284179687500000 -0.171029001474380493164062 -0.606110632419586181640625 -0.257103890180587768554688 0.188512951135635375976562 -0.350799977779388427734375 -0.411993831396102905273438 0.301710397005081176757812 -0.030232680961489677429199 -0.030456835404038429260254 -0.166433855891227722167969 0.164304390549659729003906 0.336678326129913330078125 -0.150182738900184631347656 0.084617882966995239257812 0.315383732318878173828125 0.033622998744249343872070 0.113253474235534667968750 0.218325346708297729492188 -0.085682615637779235839844 0.045951433479785919189453 0.150182738900184631347656 0.035808496177196502685547 0.057775523513555526733398 0.190754488110542297363281 -0.041524406522512435913086 0.066573537886142730712891 0.121603183448314666748047 0.031297408044338226318359 -0.081928044557571411132812 -0.200168922543525695800781 -0.236930072307586669921875 -0.242085605859756469726562 -0.260242015123367309570312 -0.347437679767608642578125 -0.287588745355606079101562 -0.389802664518356323242188 
1.306708812713623046875000 -4.521710872650146484375000 4.391005992889404296875000 5.495986461639404296875000 -1.967689037322998046875000 1.531918883323669433593750 -0.352329790592193603515625 6.021566390991210937500000 
0.085506826639175415039062 0.019395213574171066284180 -0.093471847474575042724609 0.083476528525352478027344 -0.041621133685111999511719 -0.009712248109281063079834 -0.124863401055335998535156 -0.149305075407028198242188 0.030532576143741607666016 -0.084257416427135467529297 -0.039278481155633926391602 0.026667198166251182556152 -0.036096375435590744018555 -0.039532266557216644287109 -0.141183882951736450195312 0.059425294399261474609375 0.049078576266765594482422 0.055091388523578643798828 -0.248945906758308410644531 -0.261283874511718750000000 0.017072083428502082824707 -0.110573217272758483886719 0.048961445689201354980469 0.215055540204048156738281 -0.008233448490500450134277 0.067390315234661102294922 0.027604259550571441650391 -0.067234136164188385009766 0.019932070747017860412598 0.105028934776782989501953 -0.073403120040893554687500 -0.155474066734313964843750 0.077229455113410949707031 -0.038478072732686996459961 -0.055403739213943481445312 -0.018624089658260345458984 0.041152603924274444580078 0.010297911241650581359863 0.151881992816925048828125 -0.038263332098722457885742 0.015510314144194126129150 0.164922758936882019042969 0.184601053595542907714844 0.326721996068954467773438 0.125956639647483825683594 -0.067468404769897460937500 0.097454361617565155029297 0.061377506703138351440430 0.016125259920954704284668 0.141496241092681884765625 0.100968338549137115478516 -0.153521850705146789550781 0.007799081970006227493286 0.024929730221629142761230 0.131735175848007202148438 0.196939021348953247070312 -0.162580102682113647460938 -0.054544769227504730224609 0.200687259435653686523438 -0.283929526805877685546875 0.000945602077990770339966 -0.095189794898033142089844 -0.090348310768604278564453 -0.018048187717795372009277 -0.067663624882698059082031 -0.142277121543884277343750 0.060440443456172943115234 -0.021903803572058677673340 -0.241137072443962097167969 0.011625414714217185974121 -0.115805141627788543701172 -0.138685047626495361328125 0.115910589694976806640625 -0.301000207662582397460938 -0.093565151095390319824219 -0.128868907690048217773438 -0.011191851459443569183350 -0.606081783771514892578125 -0.143459767103195190429688 -0.067087337374687194824219 -0.205802515149116516113281 -0.141827210783958435058594 -0.134480774402618408203125 0.071933947503566741943359 0.119787879288196563720703 0.020228235051035881042480 0.030610190704464912414551 0.089738875627517700195312 -0.147337049245834350585938 -0.025431966409087181091309 -0.115094318985939025878906 0.212638795375823974609375 0.035099685192108154296875 -0.080708868801593780517578 0.337732434272766113281250 -0.156622141599655151367188 -0.158560782670974731445312 0.165907233953475952148438 -0.171315029263496398925781 0.263451695442199707031250 0.258350014686584472656250 0.088667519390583038330078 -0.036069009453058242797852 -0.169172316789627075195312 -0.297531068325042724609375 0.035380277782678604125977 -0.015649460256099700927734 -0.024883534759283065795898 0.124583475291728973388672 0.242228642106056213378906 0.055965632200241088867188 -0.144071966409683227539062 -0.177335038781166076660156 -0.135705173015594482421875 -0.004878499079495668411255 0.169376388192176818847656 0.258962213993072509765625 -0.138562127947807312011719 -0.213659137487411499023438 -0.228147953748703002929688 0.051578171551227569580078 -0.181926563382148742675781 -0.005764919333159923553467 -0.066066995263099670410156 -0.138256028294563293457031 -0.062189705669879913330078 -0.003854970913380384445190 -0.301612406969070434570312 -0.170600801706314086914062 0.006600322201848030090332 -0.118563473224639892578125 -0.202027261257171630859375 0.012543801218271255493164 -0.248350679874420166015625 -0.208761498332023620605469 0.099126003682613372802734 0.368954837322235107421875 0.099228031933307647705078 0.297735124826431274414062 0.025534000247716903686523 0.161825880408287048339844 0.080810904502868652343750 -0.026324763894081115722656 -0.209373712539672851562500 -0.049785710871219635009766 -0.065220355987548828125000 -0.175021722912788391113281 0.330803990364074707031250 -0.106463171541690826416016 -0.014627020806074142456055 0.038263566792011260986328 0.142501279711723327636719 -0.080116592347621917724609 0.055600624531507492065430 -0.036576524376869201660156 -0.010247888043522834777832 -0.040309555828571319580078 -0.088228754699230194091797 -0.070963487029075622558594 -0.028661781921982765197754 0.057790189981460571289062 0.135035216808319091796875 0.075952820479869842529297 0.100289314985275268554688 0.077532179653644561767578 -0.066368982195854187011719 0.139629721641540527343750 0.075378507375717163085938 -0.262891530990600585937500 0.018306210637092590332031 -0.018126737326383590698242 0.051616333425045013427734 0.035230480134487152099609 0.072865895926952362060547 0.070245593786239624023438 0.109837256371974945068359 0.085213609039783477783203 -0.055205784738063812255859 0.030510349199175834655762 -0.141998752951622009277344 -0.044293846935033798217773 -0.141639813780784606933594 -0.096484497189521789550781 -0.018153658136725425720215 0.055636521428823471069336 0.149608403444290161132812 0.154920786619186401367188 0.144726738333702087402344 0.250113070011138916015625 -0.243364900350570678710938 -0.059620812535285949707031 0.042283754795789718627930 -0.142573073506355285644531 -0.134604483842849731445312 -0.074445255100727081298828 0.025000538676977157592773 -0.076239980757236480712891 0.093971878290176391601562 -0.153772160410881042480469 -0.240780502557754516601562 -0.253558963537216186523438 0.002028040820732712745667 -0.216659381985664367675781 -0.035625319927930831909180 0.293904393911361694335938 0.293330103158950805664062 0.368995755910873413085938 -0.024533910676836967468262 -0.143578112125396728515625 -0.079829432070255279541016 0.109550103545188903808594 0.274952083826065063476562 0.059907969087362289428711 -0.060877121984958648681641 -0.007425680756568908691406 0.149321243166923522949219 -0.067544043064117431640625 0.125342667102813720703125 0.048856683075428009033203 -0.023819252848625183105469 -0.002711740322411060333252 0.031024642288684844970703 0.053392451256513595581055 -0.015097622759640216827393 -0.049452815204858779907227 0.004947225097566843032837 -0.031905878335237503051758 0.042739879339933395385742 0.022899141535162925720215 0.092633306980133056640625 0.084857709705829620361328 0.115182548761367797851562 -0.027551541104912757873535 0.179771870374679565429688 -0.137576282024383544921875 -0.161836147308349609375000 -0.165983140468597412109375 -0.099942371249198913574219 -0.004542245995253324508667 0.045020721852779388427734 0.025400292128324508666992 0.208075046539306640625000 0.112694360315799713134766 -0.030324839055538177490234 0.005342484917491674423218 0.119536884129047393798828 0.025076309219002723693848 0.070550605654716491699219 0.100357070565223693847656 0.033797938376665115356445 0.085531592369079589843750 0.148047417402267456054688 0.094499453902244567871094 0.077082112431526184082031 0.278262794017791748046875 0.014203428290784358978271 -0.026592550799250602722168 -0.073920033872127532958984 -0.015330890193581581115723 -0.077911511063575744628906 -0.119329534471035003662109 -0.027136841788887977600098 0.005773382727056741714478 0.028951149433851242065430 -0.002136670053005218505859 0.003280331147834658622742 0.080710723996162414550781 -0.055776968598365783691406 -0.016458353027701377868652 0.009259442798793315887451 0.050800584256649017333984 0.068269766867160797119141 0.002332679927349090576172 0.026385201141238212585449 -0.108651041984558105468750 -0.141619592905044555664062 0.060338653624057769775391 -0.214191854000091552734375 -0.303144723176956176757812 0.034394070506095886230469 0.011268139816820621490479 -0.083302587270736694335938 0.038230031728744506835938 -0.033020380884408950805664 -0.213777154684066772460938 -0.022134540602564811706543 0.029080742970108985900879 -0.050282210111618041992188 -0.024035830050706863403320 -0.019490454345941543579102 -0.007486923597753047943115 -0.009953796863555908203125 0.071747884154319763183594 -0.044561937451362609863281 -0.019289076328277587890625 0.084463432431221008300781 -0.127155438065528869628906 0.004279269371181726455688 0.027200331911444664001465 -0.023604305461049079895020 0.163403362035751342773438 0.110930167138576507568359 -0.020482957363128662109375 0.256152033805847167968750 0.143035486340522766113281 0.070079326629638671875000 -0.111275389790534973144531 -0.122207306325435638427734 -0.205174788832664489746094 0.199766367673873901367188 -0.004318825900554656982422 -0.076465867459774017333984 0.226348176598548889160156 0.104025803506374359130859 -0.022036438807845115661621 -0.071345128118991851806641 -0.037600032985210418701172 -0.038060326129198074340820 0.027372939512133598327637 0.002306849928572773933411 -0.023877603933215141296387 0.112195968627929687500000 0.024582425132393836975098 -0.166050031781196594238281 0.141884744167327880859375 0.072265714406967163085938 0.076063111424446105957031 -0.003732673591002821922302 0.009615770541131496429443 0.033946473151445388793945 -0.077559061348438262939453 0.003531296271830797195435 0.046633247286081314086914 -0.091022580862045288085938 -0.064555838704109191894531 -0.137051701545715332031250 0.079400226473808288574219 0.007551651913672685623169 -0.004890593700110912322998 0.155578419566154479980469 0.050315577536821365356445 -0.221054837107658386230469 -0.112368583679199218750000 0.048445645719766616821289 0.074969924986362457275391 -0.257532894611358642578125 0.023402929306030273437500 0.066512070596218109130859 -0.248327076435089111328125 -0.064843520522117614746094 -0.038549385964870452880859 -0.052358120679855346679688 0.080781102180480957031250 0.112713798880577087402344 -0.152931734919548034667969 -0.073646590113639831542969 0.036765757948160171508789 -0.131528198719024658203125 -0.098502308130264282226562 -0.101033911108970642089844 -0.000680815777741372585297 -0.067047759890556335449219 -0.095668941736221313476562 0.344160854816436767578125 0.085156843066215515136719 -0.056712336838245391845703 -0.135862261056900024414062 -0.154059678316116333007812 0.001821950078010559082031 0.117841519415378570556641 -0.006409951485693454742432 0.010495536960661411285400 -0.099025748670101165771484 -0.092047125101089477539062 0.259534031152725219726562 -0.198404833674430847167969 -0.176143929362297058105469 0.074909754097461700439453 0.419070601463317871093750 0.253527104854583740234375 -0.001225675456225872039795 -0.211655378341674804687500 -0.248226895928382873535156 0.039044942706823348999023 -0.239923208951950073242188 -0.101940862834453582763672 0.240629911422729492187500 -0.369955241680145263671875 -0.231619536876678466796875 -0.146286025643348693847656 -0.163246721029281616210938 0.114749729633331298828125 0.203175038099288940429688 0.069565363228321075439453 0.058434907346963882446289 -0.047260280698537826538086 0.115986444056034088134766 -0.017888236790895462036133 0.228086069226264953613281 -0.017446551471948623657227 0.025926901027560234069824 0.292572051286697387695312 -0.271017819643020629882812 -0.114838063716888427734375 -0.190277844667434692382812 -0.277378082275390625000000 -0.206708520650863647460938 -0.108477801084518432617188 0.106534391641616821289062 0.119519926607608795166016 0.081358350813388824462891 -0.033060111105442047119141 0.029327875003218650817871 -0.079944960772991180419922 -0.317836433649063110351562 -0.257060587406158447265625 -0.281971603631973266601562 0.022161537781357765197754 0.133918851613998413085938 -0.178440690040588378906250 0.237273111939430236816406 0.185507640242576599121094 0.109891191124916076660156 -0.059274107217788696289062 0.115898109972476959228516 -0.213952139019966125488281 0.008408575318753719329834 0.119608260691165924072266 0.232149556279182434082031 -0.308296024799346923828125 -0.123053401708602905273438 -0.100439138710498809814453 0.103974722325801849365234 0.151383206248283386230469 0.059026990085840225219727 -0.053793989121913909912109 0.014826832339167594909668 -0.017458906397223472595215 -0.121791839599609375000000 -0.064041949808597564697266 -0.052797228097915649414062 -0.030292214825749397277832 -0.053793989121913909912109 -0.176676034927368164062500 0.121729537844657897949219 -0.065412499010562896728516 -0.052205402404069900512695 -0.003077891422435641288757 -0.067156828939914703369141 -0.028719199821352958679199 0.017505628988146781921387 -0.143284514546394348144531 -0.088462613523006439208984 -0.026149423792958259582520 -0.085347734391689300537109 0.013900155201554298400879 -0.249813437461853027343750 -0.159232705831527709960938 -0.212808653712272644042969 0.030650425702333450317383 0.010247957892715930938721 0.184027150273323059082031 -0.068651974201202392578125 0.073635779321193695068359 0.148642107844352722167969 -0.039185199886560440063477 -0.012405012734234333038330 0.057033468037843704223633 0.140668019652366638183594 -0.148143723607063293457031 -0.099053204059600830078125 0.147146970033645629882812 -0.145776420831680297851562 -0.122913196682929992675781 0.219038411974906921386719 -0.206703484058380126953125 -0.118365466594696044921875 -0.042019739747047424316406 -0.047813419252634048461914 0.214677587151527404785156 -0.072701320052146911621094 -0.027597842738032341003418 0.133690685033798217773438 0.001929279300384223461151 -0.191876649856567382812500 -0.180538490414619445800781 -0.077747426927089691162109 0.030183194205164909362793 0.022240249440073966979980 0.004987702704966068267822 -0.116060458123683929443359 -0.004501002840697765350342 -0.099364697933197021484375 -0.135933399200439453125000 -0.086344495415687561035156 0.025277256965637207031250 -0.246823146939277648925781 0.073947265744209289550781 -0.041957445442676544189453 -0.170820057392120361328125 -0.014390748925507068634033 -0.133316889405250549316406 -0.013689900748431682586670 -0.114814504981040954589844 0.007457761559635400772095 -0.012648439034819602966309 -0.004227166995406150817871 0.073566876351833343505859 -0.015501186251640319824219 -0.068692639470100402832031 0.193306684494018554687500 -0.008766057901084423065186 -0.130886316299438476562500 -0.061475757509469985961914 -0.044283706694841384887695 0.020139262080192565917969 -0.028659719973802566528320 -0.062684871256351470947266 0.013564718887209892272949 -0.059397596865892410278320 -0.054447799921035766601562 -0.005776341073215007781982 -0.048553381115198135375977 -0.047684330493211746215820 0.021442836150527000427246 -0.025353554636240005493164 -0.075380541384220123291016 0.035366509109735488891602 -0.045341677963733673095703 -0.014688814058899879455566 0.132624402642250061035156 0.066538915038108825683594 -0.022122960537672042846680 -0.010164093226194381713867 0.119475319981575012207031 -0.079423509538173675537109 -0.038087010383605957031250 0.078441105782985687255859 -0.126503288745880126953125 -0.102396622300148010253906 -0.040580801665782928466797 -0.007311345543712377548218 0.011836066842079162597656 -0.037482455372810363769531 -0.090003229677677154541016 -0.081917300820350646972656 -0.077987685799598693847656 -0.084788940846920013427734 -0.041185356676578521728516 0.048704519867897033691406 0.002781900810077786445618 0.029056459665298461914062 0.087282732129096984863281 -0.037879195064306259155273 0.072017699480056762695312 0.024390043690800666809082 -0.123556070029735565185547 0.078970089554786682128906 0.064649678766727447509766 -0.019156858325004577636719 -0.014839953742921352386475 0.054523367434740066528320 0.026959406211972236633301 0.027922917157411575317383 0.041714344173669815063477 0.166857376694679260253906 0.066538915038108825683594 0.015850694850087165832520 -0.076854147017002105712891 -0.049422428011894226074219 0.068428151309490203857422 -0.036953467875719070434570 -0.064385183155536651611328 0.117661654949188232421875 0.089247539639472961425781 -0.027771778404712677001953 
-0.634922564029693603515625 0.799309372901916503906250 -1.958805918693542480468750 1.346065878868103027343750 1.620434403419494628906250 1.288931131362915039062500 3.381542921066284179687500 2.490294933319091796875000 
-0.001054309774190187454224 -0.042377632111310958862305 -0.014933815225958824157715 -0.028518894687294960021973 -0.145585149526596069335938 -0.140893906354904174804688 -0.218299537897109985351562 -0.179831281304359436035156 -0.127289265394210815429688 -0.059969823807477951049805 -0.112042710185050964355469 -0.082800574600696563720703 -0.056920509785413742065430 -0.151136457920074462890625 0.007237231824547052383423 -0.008835189044475555419922 -0.154576718807220458984375 -0.028147505596280097961426 -0.040227476507425308227539 -0.127523839473724365234375 0.003792094299569725990295 0.041204821318387985229492 -0.113997392356395721435547 0.003633276093751192092896 -0.131745964288711547851562 -0.219706907868385314941406 -0.122988961637020111083984 -0.007589075714349746704102 0.091948516666889190673828 -0.011972462758421897888184 0.156531408429145812988281 0.064934730529785156250000 -0.018110182136297225952148 0.110557146370410919189453 -0.207040533423423767089844 0.015285658650100231170654 -0.134873464703559875488281 0.062354542315006256103516 0.108524270355701446533203 0.018520666286349296569824 -0.100783705711364746093750 -0.061103541404008865356445 -0.042729474604129791259766 -0.251451045274734497070312 -0.327449291944503784179688 -0.074747264385223388671875 0.000496918277349323034286 0.018227463588118553161621 -0.108055144548416137695312 -0.140033841133117675781250 0.111026272177696228027344 -0.033952929079532623291016 -0.092964954674243927001953 -0.031470473855733871459961 -0.005219016689807176589966 0.223616287112236022949219 0.110009834170341491699219 -0.001340182847343385219574 0.137062713503837585449219 0.000034111591958208009601 0.067475825548171997070312 0.126585587859153747558594 -0.017973354086279869079590 0.089133761823177337646484 0.057506915181875228881836 0.079399421811103820800781 -0.152074709534645080566406 -0.059539791196584701538086 -0.059109758585691452026367 0.158329710364341735839844 0.262084543704986572265625 0.109931640326976776123047 -0.121130518615245819091797 0.080791875720024108886719 0.092710107564926147460938 0.035955250263214111328125 0.051769830286502838134766 -0.061482045799493789672852 -0.004544543102383613586426 -0.117291465401649475097656 -0.042172212153673171997070 0.159291788935661315917969 0.238593876361846923828125 0.037215832620859146118164 -0.108066298067569732666016 -0.163302734494209289550781 -0.087381280958652496337891 0.060393359512090682983398 -0.228853017091751098632812 0.063888609409332275390625 0.009927086532115936279297 -0.060737155377864837646484 0.119640737771987915039062 -0.117062270641326904296875 -0.086980193853378295898438 0.149207130074501037597656 0.030282629653811454772949 0.005522210616618394851685 0.010163445957005023956299 0.217851564288139343261719 0.020541764795780181884766 -0.012097294442355632781982 0.269764661788940429687500 0.041284076869487762451172 0.166969880461692810058594 -0.131558969616889953613281 -0.455872446298599243164062 -0.494148313999176025390625 0.118953146040439605712891 -0.175793960690498352050781 -0.036041200160980224609375 0.135799109935760498046875 -0.038963459432125091552734 0.050108153373003005981445 -0.313312053680419921875000 -0.226446449756622314453125 -0.065550290048122406005859 -0.178888112306594848632812 -0.043174948543310165405273 -0.156083032488822937011719 0.078614503145217895507812 0.122161902487277984619141 0.274348586797714233398438 -0.064232409000396728515625 0.140612244606018066406250 0.323167502880096435546875 -0.189545765519142150878906 -0.323396712541580200195312 -0.105831630527973175048828 -0.265409916639328002929688 -0.280078500509262084960938 -0.391009747982025146484375 0.090360842645168304443359 0.334856539964675903320312 0.286037623882293701171875 -0.051683880388736724853516 -0.311020076274871826171875 -0.340586453676223754882812 -0.107149511575698852539062 -0.112936727702617645263672 -0.235385119915008544921875 0.092022523283958435058594 0.274806976318359375000000 0.095231272280216217041016 -0.034136921167373657226562 -0.064199350774288177490234 -0.120563134551048278808594 0.003197887679561972618103 -0.073654256761074066162109 0.083370350301265716552734 0.092981971800327301025391 -0.013281272724270820617676 0.318019241094589233398438 0.019066527485847473144531 -0.117846809327602386474609 -0.076527297496795654296875 0.044636569917201995849609 -0.249484196305274963378906 -0.015070391818881034851074 0.069475293159484863281250 -0.153472483158111572265625 -0.011204849928617477416992 0.071199111640453338623047 0.010231934487819671630859 0.033692903816699981689453 -0.171233087778091430664062 -0.145219027996063232421875 -0.107503868639469146728516 -0.102384641766548156738281 -0.164755687117576599121094 -0.133935824036598205566406 -0.022370520979166030883789 0.066079884767532348632812 0.016728918999433517456055 -0.131219491362571716308594 -0.214589849114418029785156 0.045394007116556167602539 -0.067438043653964996337891 -0.279990643262863159179688 -0.141562432050704956054688 0.118891552090644836425781 -0.154830649495124816894531 -0.097944490611553192138672 0.083944953978061676025391 0.037924107164144515991211 0.091362617909908294677734 0.019889261573553085327148 0.239872589707374572753906 0.201217159628868103027344 -0.085825487971305847167969 -0.141666904091835021972656 0.057251818478107452392578 -0.171024143695831298828125 -0.135502934455871582031250 0.017107637599110603332520 -0.071564771234989166259766 -0.122339196503162384033203 -0.006160708609968423843384 -0.318019241094589233398438 0.154517233371734619140625 0.011074257083237171173096 -0.051557980477809906005859 0.164964646100997924804688 -0.036618180572986602783203 -0.121398933231830596923828 0.119727343320846557617188 -0.077310852706432342529297 -0.487685203552246093750000 -0.146368250250816345214844 -0.120040766894817352294922 -0.195784509181976318359375 0.330765068531036376953125 0.232977285981178283691406 -0.589651942253112792968750 0.293781220912933349609375 0.337660372257232666015625 -0.192726776003837585449219 -0.114651329815387725830078 -0.150805190205574035644531 0.034518491476774215698242 0.054476965218782424926758 -0.227051839232444763183594 0.269817471504211425781250 -0.054441798478364944458008 -0.203136831521987915039062 0.083491489291191101074219 0.006572229322046041488647 -0.131813853979110717773438 0.078708492219448089599609 0.105155669152736663818359 -0.384328126907348632812500 -0.076457664370536804199219 0.128578305244445800781250 -0.370260477066040039062500 0.012704844586551189422607 -0.041605070233345031738281 -0.109797991812229156494141 0.085531301796436309814453 -0.115636065602302551269531 -0.151086539030075073242188 -0.012854313477873802185059 -0.328620254993438720703125 0.030720226466655731201172 -0.042449127882719039916992 -0.016977893188595771789551 -0.051698606461286544799805 0.043328355997800827026367 -0.050221502780914306640625 -0.552014529705047607421875 -0.024407368153333663940430 0.060701899230480194091797 -0.392206013202667236328125 -0.056868467479944229125977 0.036716561764478683471680 -0.101005710661411285400391 0.078708492219448089599609 0.013408226892352104187012 0.064429827034473419189453 0.043715216219425201416016 -0.179643869400024414062500 0.453259617090225219726562 -0.001870557549409568309784 -0.219314634799957275390625 -0.131954535841941833496094 -0.172188013792037963867188 -0.175564244389533996582031 -0.238446637988090515136719 -0.035432886332273483276367 -0.059611659497022628784180 -0.125272408127784729003906 0.035397719591856002807617 -0.371104538440704345703125 0.133431643247604370117188 -0.035960424691438674926758 -0.314552605152130126953125 0.239712715148925781250000 0.029506891965866088867188 -0.090736329555511474609375 0.169093132019042968750000 -0.257578641176223754882812 -0.225363716483116149902344 0.076105974614620208740234 0.004288434516638517379761 -0.376168906688690185546875 0.296546012163162231445312 0.020855287089943885803223 -0.631918728351593017578125 0.215797722339630126953125 0.002614998957142233848572 0.071002669632434844970703 0.079257652163505554199219 -0.261604309082031250000000 -0.067563094198703765869141 0.011264611035585403442383 0.050561763346195220947266 -0.117436945438385009765625 -0.153405085206031799316406 -0.028843300417065620422363 -0.006701030768454074859619 -0.030587656423449516296387 0.012984398752450942993164 -0.013979419134557247161865 -0.005239211022853851318359 0.081960178911685943603516 0.142496705055236816406250 -0.008009297773241996765137 -0.153110265731811523437500 -0.126772940158843994140625 -0.107806131243705749511719 -0.071199215948581695556641 -0.058374516665935516357422 -0.165787547826766967773438 -0.020453192293643951416016 0.038179293274879455566406 -0.028573047369718551635742 -0.009071880951523780822754 0.031201865524053573608398 0.098027907311916351318359 -0.010189743712544441223145 0.177776932716369628906250 0.185737088322639465332031 -0.070806123316287994384766 0.067513957619667053222656 0.032110895961523056030273 -0.005491036921739578247070 0.212664052844047546386719 0.200085043907165527343750 -0.026705849915742874145508 0.125495374202728271484375 0.218560472130775451660156 -0.078864559531211853027344 0.016067732125520706176758 0.073950879275798797607422 -0.066580362617969512939453 -0.108494050800800323486328 -0.140826061367988586425781 -0.061077039688825607299805 -0.148196578025817871093750 -0.160677328705787658691406 0.079994708299636840820312 -0.097487404942512512207031 -0.156058475375175476074219 0.145543187856674194335938 0.165984094142913818359375 -0.024531546980142593383789 0.023241704329848289489746 0.114685282111167907714844 -0.024163020774722099304199 -0.066727772355079650878906 0.078618876636028289794922 0.013881145045161247253418 0.357519328594207763671875 0.371474176645278930664062 0.295213878154754638671875 -0.155567094683647155761719 -0.152520611882209777832031 -0.150751695036888122558594 -0.029383804649114608764648 -0.007745187729597091674805 -0.207160741090774536132812 0.039474122226238250732422 0.001525075174868106842041 0.063173003494739532470703 -0.270844340324401855468750 -0.103223390877246856689453 -0.334809720516204833984375 -0.011399233713746070861816 -0.304267704486846923828125 -0.049378670752048492431641 0.148820325732231140136719 -0.031550485640764236450195 -0.034215707331895828247070 0.279344260692596435546875 -0.069836065173149108886719 -0.117846108973026275634766 0.276174783706665039062500 0.062812834978103637695312 -0.152998238801956176757812 0.024563277140259742736816 -0.195065557956695556640625 -0.132540851831436157226562 -0.036520767956972122192383 -0.353826463222503662109375 -0.461011648178100585937500 -0.408859729766845703125000 -0.402520805597305297851562 -0.469655632972717285156250 0.123320616781711578369141 0.209904372692108154296875 0.086871884763240814208984 -0.531604051589965820312500 -0.386385411024093627929688 -0.276607006788253784179688 0.141328886151313781738281 0.034882016479969024658203 0.193192705512046813964844 0.062704786658287048339844 0.028705179691314697265625 0.220421195030212402343750 -0.569349408149719238281250 -0.312623530626296997070312 -0.371114373207092285156250 0.028741195797920227050781 0.264073252677917480468750 0.172879368066787719726562 0.353538304567337036132812 -0.167548924684524536132812 0.268395215272903442382812 0.268827438354492187500000 -0.260039389133453369140625 -0.043399926275014877319336 -0.093426890671253204345703 -0.063677236437797546386719 -0.130884096026420593261719 -0.439401745796203613281250 -0.196362152695655822753906 0.126418039202690124511719 -0.125481605529785156250000 0.117702037096023559570312 0.215667024254798889160156 0.105600483715534210205078 0.219124600291252136230469 -0.107401311397552490234375 -0.050711281597614288330078 -0.006573017686605453491211 -0.114316485822200775146484 0.116765610873699188232422 0.256005525588989257812500 0.170142114162445068359375 -0.211345031857490539550781 0.031730569899082183837891 -0.074338130652904510498047 -0.092318184673786163330078 -0.054378684610128402709961 0.016781665384769439697266 -0.044142246246337890625000 -0.026656590402126312255859 -0.168044969439506530761719 0.041897080838680267333984 -0.041174061596393585205078 -0.137221500277519226074219 0.093307577073574066162109 0.138895869255065917968750 0.063169077038764953613281 0.198031261563301086425781 0.187985092401504516601562 0.075802892446517944335938 0.234410554170608520507812 0.091404899954795837402344 0.083413630723953247070312 0.009332660585641860961914 0.038529332727193832397461 0.038947924971580505371094 -0.046882111579179763793945 0.020149413496255874633789 -0.015259518288075923919678 0.018408458679914474487305 0.020206494256854057312012 0.007934188470244407653809 -0.253285169601440429687500 -0.221928954124450683593750 -0.383580923080444335937500 0.080445438623428344726562 0.229539692401885986328125 -0.036303192377090454101562 0.034077055752277374267578 0.015354652889072895050049 -0.063321292400360107421875 -0.353746831417083740234375 -0.121315076947212219238281 -0.186615154147148132324219 -0.100081130862236022949219 0.030880546197295188903809 -0.017685439437627792358398 0.004561682697385549545288 0.012643328867852687835693 -0.018313324078917503356934 -0.065490350127220153808594 -0.164544031023979187011719 -0.181744292378425598144531 -0.044636946171522140502930 -0.145212769508361816406250 -0.113171592354774475097656 -0.034552726894617080688477 -0.015668595209717750549316 -0.013252187520265579223633 -0.201227769255638122558594 -0.102288246154785156250000 -0.035466011613607406616211 0.014327203854918479919434 0.027798200026154518127441 -0.080141015350818634033203 0.079988799989223480224609 0.093003153800964355468750 -0.013718345202505588531494 -0.059820357710123062133789 -0.077933900058269500732422 -0.116520315408706665039062 0.007615488953888416290283 0.036246113479137420654297 -0.013318781740963459014893 0.119336284697055816650391 0.064234584569931030273438 -0.041859026998281478881836 -0.102737471461296081542969 -0.068455293774604797363281 -0.037135995924472808837891 -0.044025149196386337280273 0.121496327221393585205078 0.142363741993904113769531 -0.002965153893455862998962 0.050714354962110519409180 0.121423617005348205566406 0.033645976334810256958008 0.006302940193563699722290 0.061257123947143554687500 0.091976575553417205810547 0.071109160780906677246094 0.066455803811550140380859 0.090376980602741241455078 0.127167612314224243164062 0.015114332549273967742920 0.089504472911357879638672 0.141200393438339233398438 -0.059839304536581039428711 0.174937263131141662597656 0.173773914575576782226562 0.024593735113739967346191 0.192241951823234558105469 0.143890619277954101562500 0.187443166971206665039062 0.170720160007476806640625 0.049950912594795227050781 0.069582276046276092529297 0.044679529964923858642578 -0.068927899003028869628906 -0.065583296120166778564453 0.053331870585680007934570 -0.080634005367755889892578 -0.109353967010974884033203 0.085505492985248565673828 -0.011397097259759902954102 -0.017177443951368331909180 -0.100192666053771972656250 -0.099974535405635833740234 -0.189624428749084472656250 0.166357621550559997558594 -0.027974693104624748229980 -0.132766187191009521484375 0.027447555214166641235352 -0.172174334526062011718750 -0.072526983916759490966797 -0.043952442705631256103516 -0.162431359291076660156250 -0.112916693091392517089844 -0.133929520845413208007812 -0.096993476152420043945312 -0.050568938255310058593750 -0.056349284946918487548828 -0.058930445462465286254883 0.030483145266771316528320 -0.018976984545588493347168 -0.044388692826032638549805 0.087395921349525451660156 -0.070672906935214996337891 0.027447555214166641235352 0.123314045369625091552734 0.072272501885890960693359 -0.042607329785823822021484 -0.070709265768527984619141 -0.114298157393932342529297 -0.240375146269798278808594 -0.253462702035903930664062 -0.166503041982650756835938 -0.090231560170650482177734 -0.103246428072452545166016 0.231116086244583129882812 0.172156602144241333007812 0.323383867740631103515625 0.297860264778137207031250 0.112750448286533355712891 -0.101839117705821990966797 0.066616564989089965820312 -0.103434339165687561035156 -0.017387943342328071594238 0.052419070154428482055664 -0.130234107375144958496094 -0.032638289034366607666016 -0.012442748993635177612305 0.077910751104354858398438 0.087609715759754180908203 -0.150333926081657409667969 0.021886477246880531311035 -0.041412021964788436889648 0.134764537215232849121094 0.065914668142795562744141 -0.096032500267028808593750 0.002428728854283690452576 0.151865348219871520996094 0.033084951341152191162109 -0.051430027931928634643555 0.025986202061176300048828 -0.069998443126678466796875 -0.029591409489512443542480 0.041635353118181228637695 0.231243699789047241210938 -0.039082992821931838989258 0.055418089032173156738281 0.309601128101348876953125 -0.005651081912219524383545 0.270805269479751586914062 0.341505616903305053710938 -0.075103156268596649169922 0.166030943393707275390625 0.323894321918487548828125 0.115302808582782745361328 0.096223928034305572509766 0.281525164842605590820312 -0.000245016475673764944077 -0.076762191951274871826172 0.222693309187889099121094 -0.192320227622985839843750 0.072104133665561676025391 0.075422205030918121337891 -0.157225295901298522949219 0.048367198556661605834961 0.093543946743011474609375 -0.114792339503765106201172 0.053408108651638031005859 0.027709044516086578369141 0.068530835211277008056641 -0.221799984574317932128906 -0.298625975847244262695312 -0.182110801339149475097656 -0.268763393163681030273438 -0.113771393895149230957031 -0.007246306166052818298340 -0.003401815658435225486755 0.271060496568679809570312 0.173305168747901916503906 0.087163053452968597412109 -0.051589552313089370727539 0.084738314151763916015625 0.179558441042900085449219 0.262382477521896362304688 -0.018329126760363578796387 0.083143085241317749023438 0.131446480751037597656250 -0.019749972969293594360352 -0.030394783243536949157715 -0.062063757330179214477539 0.063497222959995269775391 -0.146319687366485595703125 -0.075071133673191070556641 -0.027235848829150199890137 0.061214298009872436523438 0.001364612951874732971191 -0.004794809967279434204102 -0.209710732102394104003906 -0.138037443161010742187500 0.108571760356426239013672 0.178705394268035888671875 0.129967555403709411621094 0.038385026156902313232422 0.172546803951263427734375 0.234026551246643066406250 -0.122534774243831634521484 0.015237210318446159362793 0.088184691965579986572266 0.058665912598371505737305 0.145576417446136474609375 0.024488372728228569030762 0.101935341954231262207031 0.063975043594837188720703 0.075655139982700347900391 0.033474080264568328857422 0.075602047145366668701172 -0.042924337089061737060547 -0.233814194798469543457031 -0.071938745677471160888672 -0.227867960929870605468750 -0.345518350601196289062500 -0.203870683908462524414062 -0.293488830327987670898438 0.073956213891506195068359 -0.033925354480743408203125 -0.145788773894309997558594 -0.322370529174804687500000 -0.051684405654668807983398 0.087706863880157470703125 -0.377797871828079223632812 0.020161429420113563537598 0.205144882202148437500000 0.120623484253883361816406 0.291577547788619995117188 0.063497222959995269775391 0.078522071242332458496094 0.320459216833114624023438 0.007147419266402721405029 -0.149823710322380065917969 0.073690757155418395996094 -0.043826889246702194213867 -0.380983352661132812500000 -0.317273765802383422851562 -0.355924248695373535156250 0.315999567508697509765625 0.210772559046745300292969 0.112978339195251464843750 0.301346361637115478515625 0.232539996504783630371094 0.095458202064037322998047 -0.186031997203826904296875 -0.219373345375061035156250 -0.052958596497774124145508 0.061055023223161697387695 0.021409075707197189331055 0.141222923994064331054688 0.001707217888906598091125 0.026439478620886802673340 -0.277986168861389160156250 0.039113685488700866699219 -0.020207360386848449707031 0.034343220293521881103516 0.111352160573005676269531 0.116060674190521240234375 0.136629432439804077148438 0.162154525518417358398438 0.301840364933013916015625 0.066414788365364074707031 -0.145303010940551757812500 0.028003251180052757263184 0.070379853248596191406250 -0.099787399172782897949219 -0.085248835384845733642578 0.165541335940361022949219 0.072486288845539093017578 -0.116308487951755523681641 0.034776899963617324829102 0.021560024470090866088867 -0.136629432439804077148438 -0.024017537012696266174316 -0.017233563587069511413574 -0.216921940445899963378906 -0.002811167156323790550232 0.000503376999404281377792 -0.158189460635185241699219 -0.062036700546741485595703 -0.106891468167304992675781 -0.018286783248186111450195 0.169671609997749328613281 -0.104578509926795959472656 -0.016448812559247016906738 0.273093640804290771484375 -0.114160746335983276367188 -0.003598500275984406471252 0.216261088848114013671875 -0.004920187871903181076050 -0.307292312383651733398438 -0.097557045519351959228516 0.079507753252983093261719 -0.321830868721008300781250 0.026495700702071189880371 0.034714944660663604736328 -0.251451015472412109375000 0.062862753868103027343750 -0.018978605046868324279785 0.064886592328548431396484 -0.051793623715639114379883 -0.096813596785068511962891 -0.111186951398849487304688 0.011182714253664016723633 -0.174132317304611206054688 -0.151167988777160644531250 0.081201165914535522460938 0.090122558176517486572266 0.018204178661108016967773 -0.170332461595535278320312 0.063358388841152191162109 0.056006502360105514526367 -0.194618463516235351562500 -0.034012798219919204711914 -0.012679938226938247680664 -0.193627193570137023925781 0.089957349002361297607422 0.072568893432617187500000 0.168515145778656005859375 0.169341191649436950683594 0.187679603695869445800781 -0.007005975581705570220947 -0.142990052700042724609375 -0.280858576297760009765625 -0.317865818738937377929688 -0.002169758779928088188171 -0.111458495259284973144531 0.016926478594541549682617 -0.085185363888740539550781 -0.146201610565185546875000 -0.066195338964462280273438 -0.150625422596931457519531 -0.038330718874931335449219 0.015375446528196334838867 0.007033592090010643005371 -0.041756473481655120849609 0.023346401751041412353516 0.085509061813354492187500 -0.060153059661388397216797 -0.170262828469276428222656 0.117608673870563507080078 -0.066087447106838226318359 -0.175981417298316955566406 0.025099741294980049133301 0.023791478946805000305176 0.031020637601613998413086 0.152135998010635375976562 0.087882816791534423828125 0.048257321119308471679688 0.106171503663063049316406 0.117824472486972808837891 0.003796656150370836257935 0.023454299196600914001465 -0.076553538441658020019531 -0.045910540968179702758789 0.066896677017211914062500 -0.081678688526153564453125 0.090526312589645385742188 0.031748946756124496459961 -0.114587537944316864013672 0.089447334408760070800781 0.002707562176510691642761 -0.099050238728523254394531 -0.021512137725949287414551 0.083189256489276885986328 -0.150085940957069396972656 -0.115019127726554870605469 0.082595817744731903076172 -0.091173700988292694091797 -0.187634393572807312011719 0.004369863774627447128296 0.043968379497528076171875 0.054434474557638168334961 0.095273815095424652099609 0.107358381152153015136719 0.079952321946620941162109 0.079790472984313964843750 0.023319426923990249633789 0.076769329607486724853516 0.069216482341289520263672 0.061717581003904342651367 -0.104499086737632751464844 -0.047232292592525482177734 0.020864749327301979064941 -0.061825476586818695068359 -0.145662114024162292480469 -0.102449022233486175537109 -0.076337739825248718261719 0.073748193681240081787109 -0.034149676561355590820312 -0.055351607501506805419922 0.021053571254014968872070 0.008153032511472702026367 -0.055135808885097503662109 0.243417590856552124023438 0.262407600879669189453125 0.142640978097915649414062 
0.476156830787658691406250 2.093310117721557617187500 1.741362333297729492187500 3.643620729446411132812500 -0.780652165412902832031250 0.073668390512466430664062 2.689291000366210937500000 3.516837120056152343750000 -5.387307643890380859375000 1.391547560691833496093750 1.490817427635192871093750 1.527369499206542968750000 
-0.055495236068964004516602 -0.024421272799372673034668 0.042463541030883789062500 0.038652978837490081787109 0.331624031066894531250000 0.108295716345310211181641 -0.239160045981407165527344 -0.398487806320190429687500 0.218780919909477233886719 -0.075663842260837554931641 0.029663424938917160034180 0.020073864609003067016602 -0.099621951580047607421875 0.016273830085992813110352 -0.098611414432525634765625 0.139874950051307678222656 0.123285323381423950195312 0.074779622256755828857422 -0.130695909261703491210938 -0.130359068512916564941406 -0.194022804498672485351562 0.058653160929679870605469 0.139790728688240051269531 0.126485347747802734375000 0.049979399889707565307617 -0.018863327801227569580078 0.125222176313400268554688 -0.185601681470870971679688 -0.119495816528797149658203 -0.125053763389587402343750 0.224507287144660949707031 0.101390391588211059570312 0.023894952610135078430176 0.055747870355844497680664 0.032947666943073272705078 0.003347398713231086730957 0.025347597897052764892578 0.045853044837713241577148 -0.089179754257202148437500 0.021137032657861709594727 0.151496097445487976074219 -0.003015816677361726760864 0.082021795213222503662109 -0.091116614639759063720703 -0.022105462849140167236328 0.078905977308750152587891 -0.171959444880485534667969 0.072842761874198913574219 0.161854088306427001953125 -0.156969830393791198730469 0.147032901644706726074219 -0.007836912758648395538330 0.057684730738401412963867 -0.076000683009624481201172 0.054232068359851837158203 -0.087916582822799682617188 0.058611053973436355590820 0.038084555417299270629883 -0.140801265835762023925781 0.246907487511634826660156 0.018926486372947692871094 -0.132043302059173583984375 -0.057558413594961166381836 -0.152338221669197082519531 -0.370192825794219970703125 -0.154022440314292907714844 -0.209686100482940673828125 -0.332466155290603637695312 -0.061474237591028213500977 -0.224338859319686889648438 0.127748519182205200195312 -0.142738133668899536132812 -0.118485279381275177001953 0.021368613466620445251465 -0.113011546432971954345703 -0.316466003656387329101562 -0.305855393409729003906250 -0.063579522073268890380859 0.073011182248592376708984 -0.053263638168573379516602 -0.050610981881618499755859 -0.072884865105152130126953 0.166738346219062805175781 -0.059663694351911544799805 -0.012336953543126583099365 0.229728385806083679199219 -0.025958128273487091064453 -0.007015852723270654678345 -0.033305563032627105712891 -0.096421919763088226318359 -0.125222176313400268554688 -0.115285247564315795898438 -0.098695628345012664794922 -0.105011470615863800048828 0.200591281056404113769531 0.010079038329422473907471 -0.057853154838085174560547 0.370192825794219970703125 -0.117811590433120727539062 -0.050526771694421768188477 0.030168693512678146362305 -0.102400921285152435302734 0.020779134705662727355957 0.092211358249187469482422 -0.244044303894042968750000 -0.201938658952713012695312 -0.473267436027526855468750 -0.143832877278327941894531 -0.034951854497194290161133 0.001098870066925883293152 0.060894131660461425781250 -0.015727009624242782592773 0.210506081581115722656250 0.181039467453956604003906 -0.033732909709215164184570 -0.115428566932678222656250 0.134613662958145141601562 -0.111930727958679199218750 0.047406267374753952026367 -0.056972317397594451904297 0.247392356395721435546875 0.259687781333923339843750 0.191744968295097351074219 0.039483141154050827026367 0.093275606632232666015625 0.188989102840423583984375 -0.207114249467849731445312 -0.339819997549057006835938 -0.186233222484588623046875 -0.139807417988777160644531 0.077588349580764770507812 0.015236782841384410858154 -0.039032660424709320068359 0.091261699795722961425781 0.041152562946081161499023 -0.221953541040420532226562 -0.231705084443092346191406 -0.079072274267673492431641 0.135991588234901428222656 0.099211327731609344482422 0.066511869430541992187500 0.129843890666961669921875 -0.040198605507612228393555 -0.187717154622077941894531 -0.221105590462684631347656 -0.481641322374343872070312 -0.048015739768743515014648 -0.170545965433120727539062 -0.111400753259658813476562 -0.193440884351730346679688 -0.005428931675851345062256 0.304417669773101806640625 0.021728977560997009277344 -0.095501504838466644287109 0.020178800448775291442871 -0.036541778594255447387695 0.062431059777736663818359 0.079072274267673492431641 0.165458202362060546875000 0.132917746901512145996094 0.114898592233657836914062 0.070062696933746337890625 0.014932046644389629364014 0.146061122417449951171875 -0.043855436146259307861328 0.028115175664424896240234 -0.131433814764022827148438 0.065557911992073059082031 0.196090757846832275390625 -0.018986355513334274291992 0.252480119466781616210938 -0.142351299524307250976562 -0.191850960254669189453125 -0.197468698024749755859375 0.072288595139980316162109 -0.503264307975769042968750 0.193122908473014831542969 -0.032010491937398910522461 -0.066511869430541992187500 -0.001357232918962836265564 0.036647774279117584228516 0.127723991870880126953125 0.098787344992160797119141 -0.125498086214065551757812 -0.086120940744876861572266 -0.342575877904891967773438 0.055011410266160964965820 -0.079814240336418151855469 -0.049314178526401519775391 -0.054958410561084747314453 -0.160476446151733398437500 -0.104405082762241363525391 0.175315737724304199218750 0.184113323688507080078125 -0.063226021826267242431641 0.067465819418430328369141 -0.030632557347416877746582 -0.023186407983303070068359 -0.213473945856094360351562 -0.148499011993408203125000 -0.031083036214113235473633 0.022682931274175643920898 0.160900428891181945800781 -0.223013490438461303710938 -0.026406006887555122375488 0.129419907927513122558594 -0.189731061458587646484375 -0.192062959074974060058594 -0.180615499615669250488281 0.221105590462684631347656 -0.060152165591716766357422 -0.043033972382545471191406 -0.147227063775062561035156 -0.171923905611038208007812 -0.122318238019943237304688 -0.400237143039703369140625 -0.014373742975294589996338 -0.195281907916069030761719 0.261292695999145507812500 0.222574830055236816406250 -0.025825133547186851501465 -0.110970057547092437744141 0.042182374745607376098633 -0.081138260662555694580078 -0.354596406221389770507812 0.232730329036712646484375 -0.198243930935859680175781 0.022294508293271064758301 -0.106791488826274871826172 -0.098540142178535461425781 -0.035914521664381027221680 -0.127578541636466979980469 -0.131175279617309570312500 0.004628160037100315093994 0.060192529112100601196289 -0.020800273865461349487305 0.105627834796905517578125 0.099016182124614715576172 -0.137205109000205993652344 0.061567753553390502929688 0.094044215977191925048828 -0.076959691941738128662109 0.002219863934442400932312 0.045170843601226806640625 -0.297683268785476684570312 -0.040093090385198593139648 0.201100170612335205078125 -0.302126288414001464843750 -0.010413359850645065307617 -0.151486292481422424316406 0.140801846981048583984375 -0.234634488821029663085938 0.064265310764312744140625 0.098169885575771331787109 0.133819937705993652343750 0.095789693295955657958984 0.022215168923139572143555 -0.147149041295051574707031 0.008972018957138061523438 -0.093991316854953765869141 0.075954720377922058105469 0.097958311438560485839844 -0.170316293835639953613281 0.109065897762775421142578 0.156564041972160339355469 -0.403892904520034790039062 0.226383149623870849609375 -0.065005816519260406494141 -0.202581182122230529785156 -0.003596741473302245140076 -0.070506714284420013427734 -0.030889661982655525207520 0.014915898442268371582031 -0.066804185509681701660156 0.045197289437055587768555 0.229768306016921997070312 -0.089548282325267791748047 0.159526064991950988769531 -0.096900448203086853027344 -0.095789693295955657958984 -0.303818881511688232421875 0.142282858490943908691406 -0.085422612726688385009766 -0.078599378466606140136719 0.126520678400993347167969 -0.020549030974507331848145 -0.091611124575138092041016 0.134243085980415344238281 0.228922024369239807128906 0.237808093428611755371094 -0.007808367256075143814087 -0.049481641501188278198242 -0.036258328706026077270508 -0.054691627621650695800781 -0.056913144886493682861328 -0.094414465129375457763672 0.037686444818973541259766 -0.109065897762775421142578 0.208611011505126953125000 -0.158891350030899047851562 0.039405476301908493041992 0.016978735104203224182129 -0.142917588353157043457031 -0.235480785369873046875000 -0.112556852400302886962891 -0.068549662828445434570312 0.014902675524353981018066 -0.142071291804313659667969 -0.085316821932792663574219 0.046519618481397628784180 0.121866062283515930175781 -0.392467975616455078125000 0.024198666214942932128906 0.055008988827466964721680 -0.195281907916069030761719 0.201629102230072021484375 -0.087168090045452117919922 0.091346658766269683837891 -0.171691522002220153808594 -0.233999773859977722167969 -0.184280112385749816894531 -0.021620118990540504455566 0.036655027419328689575195 -0.428858548402786254882812 0.059160415083169937133789 0.005507796071469783782959 -0.021186538040637969970703 -0.110155917704105377197266 0.038149844855070114135742 0.169210761785507202148438 -0.150910094380378723144531 -0.032835613936185836791992 -0.020341891795396804809570 0.054303701967000961303711 -0.087209701538085937500000 0.126274585723876953125000 -0.005982909351587295532227 -0.051206666976213455200195 -0.233966946601867675781250 -0.057999029755592346191406 -0.072569169104099273681641 -0.118250444531440734863281 -0.016725750640034675598145 0.055359508842229843139648 0.082704924046993255615234 -0.040085494518280029296875 -0.041845172643661499023438 0.052790377289056777954102 0.027292625978589057922363 0.123247936367988586425781 -0.060744129121303558349609 -0.000801753834821283817291 0.135143369436264038085938 0.060849707573652267456055 -0.041035719215869903564453 0.044414304196834564208984 0.074399240314960479736328 0.022735055536031723022461 0.055922605097293853759766 -0.060638546943664550781250 0.043956786394119262695312 0.075384661555290222167969 0.070281587541103363037109 -0.037762716412544250488281 0.143449053168296813964844 0.228195205330848693847656 -0.040226269513368606567383 -0.015326806344091892242432 -0.095374614000320434570312 0.049798924475908279418945 0.017702372744679450988770 0.016848929226398468017578 0.011745858937501907348633 0.132187098264694213867188 0.034841649234294891357422 -0.143660217523574829101562 -0.043006561696529388427734 0.000658230041153728961945 0.075736597180366516113281 -0.014869289472699165344238 -0.081508345901966094970703 0.066128745675086975097656 0.032290115952491760253906 0.009819010272622108459473 -0.110437467694282531738281 0.052473634481430053710938 0.037833105772733688354492 0.065424874424934387207031 0.030882371589541435241699 0.018511826172471046447754 0.044308722019195556640625 0.000723118195310235023499 -0.044097561389207839965820 -0.004896307364106178283691 -0.029069900512695312500000 0.002626321278512477874756 0.104313783347606658935547 0.008274891413748264312744 0.008521246723830699920654 0.028841143473982810974121 -0.022981410846114158630371 0.068310745060443878173828 -0.000057911318435799330473 -0.139859303832054138183594 0.002971658250316977500916 0.106495790183544158935547 -0.107270047068595886230469 0.035668697208166122436523 0.061764743179082870483398 -0.059758707880973815917969 -0.068345941603183746337891 -0.101920619606971740722656 -0.037481166422367095947266 -0.233263075351715087890625 -0.010549277067184448242188 0.097908556461334228515625 0.076229304075241088867188 -0.041246879845857620239258 -0.021556070074439048767090 -0.060849707573652267456055 -0.013681505806744098663330 -0.128456592559814453125000 0.011499503627419471740723 -0.055992994457483291625977 -0.007597415242344141006470 0.095163457095623016357422 -0.227772876620292663574219 -0.080734081566333770751953 0.009819010272622108459473 -0.300412446260452270507812 -0.053001537919044494628906 0.108185082674026489257812 0.143963485956192016601562 0.306419521570205688476562 0.056770134717226028442383 -0.222308263182640075683594 -0.175082668662071228027344 -0.138793528079986572265625 -0.216342926025390625000000 0.137699887156486511230469 -0.264861017465591430664062 -0.138694107532501220703125 -0.190990239381790161132812 -0.118213117122650146484375 -0.254918783903121948242188 -0.372038245201110839843750 -0.071733191609382629394531 -0.187311619520187377929688 -0.267247140407562255859375 -0.080382928252220153808594 0.127857074141502380371094 0.036960240453481674194336 -0.026247488334774971008301 -0.166631773114204406738281 -0.136307969689369201660156 -0.061095003038644790649414 0.286733925342559814453125 0.360704094171524047851562 0.111651241779327392578125 -0.015547161921858787536621 -0.083365596830844879150391 -0.002922083484008908271790 -0.078742459416389465332031 -0.119306758046150207519531 -0.108767993748188018798828 0.080532066524028778076172 -0.047896694391965866088867 0.165538132190704345703125 -0.068253412842750549316406 0.362294852733612060546875 -0.050431963056325912475586 -0.267843693494796752929688 -0.249152287840843200683594 -0.116920627653598785400391 0.038550999015569686889648 -0.396496146917343139648438 0.147840961813926696777344 -0.023140540346503257751465 -0.086646534502506256103516 0.064574785530567169189453 -0.133424729108810424804688 -0.027564832940697669982910 -0.081625707447528839111328 -0.007730084005743265151978 -0.125073254108428955078125 -0.070241853594779968261719 0.124377295374870300292969 -0.010824603028595447540283 0.067756295204162597656250 0.015087334439158439636230 -0.045833680778741836547852 -0.004296907689422369003296 -0.122985385358333587646484 0.356528371572494506835938 -0.198645755648612976074219 0.204412251710891723632812 -0.206201851367950439453125 0.102802656590938568115234 -0.070738963782787322998047 -0.213956788182258605957031 0.057416379451751708984375 -0.180550903081893920898438 0.120400406420230865478516 -0.098378367722034454345703 -0.342410415410995483398438 -0.187013342976570129394531 0.209383368492126464843750 -0.421152859926223754882812 -0.204412251710891723632812 0.230858579277992248535156 -0.265258699655532836914062 -0.509042203426361083984375 -0.003072770545259118080139 -0.055328510701656341552734 0.046827904880046844482422 -0.019126364961266517639160 -0.346784979104995727539062 -0.296875000000000000000000 -0.300653040409088134765625 -0.088287003338336944580078 -0.059653379023075103759766 -0.213956788182258605957031 -0.105188794434070587158203 -0.028832467272877693176270 0.054383996874094009399414 -0.150823637843132019042969 -0.164245635271072387695312 0.118411958217620849609375 -0.025476964190602302551270 0.117218889296054840087891 0.261679500341415405273438 -0.073870770633220672607422 0.179854944348335266113281 -0.167427152395248413085938 -0.177269965410232543945312 0.131237432360649108886719 -0.071285791695117950439453 0.091915920376777648925781 0.550004184246063232421875 -0.055079955607652664184570 0.050197537988424301147461 0.011916512623429298400879 -0.035502564162015914916992 -0.277105212211608886718750 -0.188564911484718322753906 0.027645690366625785827637 -0.346011072397232055664062 0.098481021821498870849609 0.324771255254745483398438 -0.138552606105804443359375 -0.195233225822448730468750 -0.182884499430656433105469 -0.105458043515682220458984 -0.061897944658994674682617 -0.071746051311492919921875 -0.130278974771499633789062 0.058687280863523483276367 0.066497839987277984619141 0.140528410673141479492188 -0.205235689878463745117188 -0.305260300636291503906250 0.083045125007629394531250 -0.259076088666915893554688 -0.263274669647216796875000 0.224870145320892333984375 -0.003430627984926104545593 -0.294887363910675048828125 0.108545228838920593261719 -0.273400604724884033203125 -0.083477333188056945800781 -0.075203686952590942382812 -0.214867681264877319335938 -0.307483077049255371093750 0.183501943945884704589844 -0.172511577606201171875000 -0.034360304474830627441406 -0.026102101430296897888184 -0.149296000599861145019531 -0.102741330862045288085938 -0.001038064016029238700867 -0.000530126562807708978653 -0.107619069516658782958984 0.005676551256328821182251 -0.010974922217428684234619 0.000163885808433406054974 -0.291923671960830688476562 -0.216102555394172668457031 -0.156211271882057189941406 -0.339589715003967285156250 -0.056618869304656982421875 0.063348919153213500976562 -0.257594257593154907226562 0.045134562999010086059570 0.006108756177127361297607 -0.384292095899581909179688 -0.155470356345176696777344 -0.397628694772720336914062 -0.440602242946624755859375 0.064460307359695434570312 -0.092244915664196014404297 -0.459866225719451904296875 0.181032195687294006347656 0.206347063183784484863281 0.218942761421203613281250 0.186959579586982727050781 0.244998559355735778808594 0.052883382886648178100586 -0.060169126838445663452148 -0.127932712435722351074219 0.081007584929466247558594 -0.016362050548195838928223 0.098357535898685455322266 -0.151889219880104064941406 -0.029791280627250671386719 -0.086379274725914001464844 -0.146455794572830200195312 -0.194986253976821899414062 -0.021594818681478500366211 -0.019943179562687873840332 -0.138058662414550781250000 -0.125524714589118957519531 -0.292911589145660400390625 -0.354655176401138305664062 -0.203753843903541564941406 -0.342553406953811645507812 -0.173375993967056274414062 -0.159792408347129821777344 -0.255865424871444702148438 -0.103543996810913085937500 0.098357535898685455322266 -0.107680812478065490722656 -0.311187684535980224609375 -0.253642648458480834960938 0.054241742938756942749023 -0.054920919239521026611328 -0.201654553413391113281250 0.151271790266036987304688 -0.247344806790351867675781 -0.071993023157119750976562 0.108051277697086334228516 -0.057328920811414718627930 0.220548093318939208984375 0.160162866115570068359375 -0.054982665926218032836914 0.074956715106964111328125 0.128920614719390869140625 0.104284919798374176025391 0.254136592149734497070312 -0.127391889691352844238281 0.446121037006378173828125 -0.100357279181480407714844 0.010462196543812751770020 0.070579297840595245361328 0.013604596257209777832031 -0.009227681905031204223633 -0.454899787902832031250000 -0.138764396309852600097656 -0.070130385458469390869141 0.167494907975196838378906 -0.015524951741099357604980 -0.040402285754680633544922 -0.096516564488410949707031 -0.081951797008514404296875 -0.025463415309786796569824 0.113924466073513031005859 0.012027161195874214172363 -0.009352380409836769104004 0.157519027590751647949219 -0.199317932128906250000000 -0.228846520185470581054688 0.131581753492355346679688 0.044791668653488159179688 -0.181161850690841674804688 -0.075118318200111389160156 -0.003971644211560487747192 0.197622030973434448242188 0.005399440880864858627319 -0.073272787034511566162109 0.190439403057098388671875 -0.009121689014136791229248 0.047684673219919204711914 0.084395885467529296875000 0.046462625265121459960938 -0.029354006052017211914062 -0.079407945275306701660156 -0.156122401356697082519531 -0.019777167588472366333008 0.106442563235759735107422 -0.013130742125213146209717 -0.030027376487851142883301 -0.040626741945743560791016 0.149438574910163879394531 -0.172083809971809387207031 -0.024440888315439224243164 -0.035339530557394027709961 0.085193954408168792724609 -0.017008863389492034912109 0.154725790023803710937500 0.039728913456201553344727 -0.085742622613906860351562 0.003081609494984149932861 -0.090531043708324432373047 0.116917230188846588134766 -0.116119161248207092285156 -0.033868089318275451660156 0.106642082333564758300781 -0.132479593157768249511719 0.106542319059371948242188 -0.047135997563600540161133 0.000438392831711098551750 -0.101155348122119903564453 0.019689878448843955993652 -0.152930125594139099121094 0.049380570650100708007812 -0.136569693684577941894531 -0.008435847237706184387207 0.098461866378784179687500 -0.074669405817985534667969 0.128589004278182983398438 0.205303460359573364257812 -0.140260770916938781738281 -0.122902750968933105468750 -0.200614795088768005371094 0.088336355984210968017578 0.059855237603187561035156 0.171984046697616577148438 -0.125596240162849426269531 -0.123501300811767578125000 0.023967033252120018005371 0.034441702067852020263672 -0.030226893723011016845703 0.037883374840021133422852 -0.141657397150993347167969 0.004351974464952945709229 -0.221863403916358947753906 -0.075218081474304199218750 -0.138066083192825317382812 -0.160212516784667968750000 -0.086191542446613311767578 -0.176173910498619079589844 0.114922054111957550048828 -0.063496433198451995849609 0.138465106487274169921875 0.117116741836071014404297 0.099658966064453125000000 -0.129586592316627502441406 0.009071809239685535430908 -0.021074030548334121704102 0.216675952076911926269531 0.035364467650651931762695 -0.324016332626342773437500 0.140061259269714355468750 -0.049854423850774765014648 0.136669456958770751953125 -0.484029352664947509765625 -0.271942287683486938476562 -0.019464761018753051757812 0.026250319555401802062988 -0.034067701548337936401367 -0.113395780324935913085938 0.052920363843441009521484 -0.110877431929111480712891 -0.003027705941349267959595 0.275899410247802734375000 0.209582820534706115722656 0.037530437111854553222656 0.035256922245025634765625 0.006553835235536098480225 -0.056243188679218292236328 -0.000506348267663270235062 -0.117033399641513824462891 0.052080914378166198730469 -0.015827141702175140380859 -0.059531036764383316040039 -0.010947834700345993041992 -0.052990317344665527343750 -0.098495535552501678466797 0.005670663435012102127075 -0.105490952730178833007812 -0.050926666706800460815430 -0.058096975088119506835938 0.332142621278762817382812 -0.004477069713175296783447 -0.010195827111601829528809 -0.074151463806629180908203 -0.149282291531562805175781 0.091290250420570373535156 -0.101013883948326110839844 -0.122699692845344543457031 0.089821211993694305419922 0.027177212759852409362793 -0.001442805631086230278015 -0.079118214547634124755859 0.016806500032544136047363 0.038229979574680328369141 -0.061454776674509048461914 -0.073591835796833038330078 -0.022927492856979370117188 0.059566013514995574951172 -0.115144640207290649414062 0.001138942083343863487244 -0.065966822206974029541016 0.021493433043360710144043 -0.015835884958505630493164 -0.007769289892166852951050 0.140048339962959289550781 -0.090380847454071044921875 -0.020636493340134620666504 0.044735718518495559692383 -0.150821283459663391113281 -0.050751782953739166259766 0.004573256708681583404541 -0.105840727686882019042969 -0.057047661393880844116211 0.027474517002701759338379 -0.110107935965061187744141 -0.006492625456303358078003 -0.079607896506786346435547 -0.065057419240474700927734 0.022682653740048408508301 0.032703593373298645019531 0.097026497125625610351562 -0.021580874919891357421875 -0.005185356363654136657715 0.126966893672943115234375 0.011524956673383712768555 -0.025935525074601173400879 0.027072280645370483398438 0.049737446010112762451172 0.079957664012908935546875 0.072822339832782745361328 0.062504090368747711181641 -0.141867145895957946777344 -0.031007206067442893981934 -0.054074607789516448974609 -0.163832768797874450683594 -0.032143961638212203979492 0.054109584540128707885742 -0.031549349427223205566406 0.108708851039409637451172 0.058131951838731765747070 -0.067575767636299133300781 0.022280417382717132568359 0.024991143494844436645508 -0.080377392470836639404297 -0.095627412199974060058594 -0.040888238698244094848633 -0.100943930447101593017578 -0.106330402195453643798828 -0.080237485468387603759766 -0.096257001161575317382812 0.049807399511337280273438 -0.064532764256000518798828 -0.248757183551788330078125 0.122349917888641357421875 -0.018870148807764053344727 -0.130604520440101623535156 -0.067435860633850097656250 0.026652555912733078002930 0.036656007170677185058594 0.065931849181652069091797 0.076390005648136138916016 0.233926892280578613281250 0.467853784561157226562500 -0.022523552179336547851562 0.089330196380615234375000 0.027195755392313003540039 0.139284580945968627929688 0.541623115539550781250000 -0.116070486605167388916016 0.179718255996704101562500 -0.367664277553558349609375 -0.212276756763458251953125 -0.075578048825263977050781 0.142928317189216613769531 -0.093973018229007720947266 -0.011739281006157398223877 0.263524085283279418945312 0.050189465284347534179688 0.181481346487998962402344 0.127295538783073425292969 0.165848568081855773925781 -0.039493352174758911132812 -0.034938685595989227294922 -0.176074519753456115722656 -0.068525664508342742919922 0.160324200987815856933594 -0.030530946329236030578613 -0.138461813330650329589844 0.335693478584289550781250 0.113719694316387176513672 -0.140695065259933471679688 -0.098733372986316680908203 0.009697028435766696929932 -0.081748887896537780761719 0.111075051128864288330078 0.076577134430408477783203 -0.129763871431350708007812 -0.099262304604053497314453 0.117422193288803100585938 0.136698707938194274902344 -0.252005189657211303710938 -0.054891057312488555908203 -0.030619099736213684082031 0.056389685720205307006836 -0.136228546500205993652344 -0.024418879300355911254883 0.143045857548713684082031 -0.088860042393207550048828 0.000745642697438597679138 0.047015894204378128051758 0.087096944451332092285156 -0.017146108672022819519043 0.291028380393981933593750 0.067937962710857391357422 -0.105903297662734985351562 0.090446822345256805419922 -0.061532050371170043945312 0.061649590730667114257812 -0.020760456100106239318848 0.156445384025573730468750 -0.057712011039257049560547 -0.209455803036689758300781 0.071816779673099517822266 0.220622077584266662597656 -0.105550684034824371337891 0.403396368026733398437500 -0.078986704349517822265625 0.085980318486690521240234 -0.102553419768810272216797 0.104962982237339019775391 -0.337339043617248535156250 -0.219329148530960083007812 -0.024271955713629722595215 -0.031324338167905807495117 -0.204636678099632263183594 0.031735729426145553588867 -0.060532961040735244750977 0.120360687375068664550781 -0.152213960886001586914062 -0.121301002800464630126953 -0.228027090430259704589844 0.061003122478723526000977 -0.061884671449661254882812 0.154917374253273010253906 0.045076489448547363281250 -0.162439912557601928710938 -0.055566910654306411743164 0.186653092503547668457031 -0.198289528489112854003906 0.157620787620544433593750 -0.233198836445808410644531 -0.051188554614782333374023 -0.211924135684967041015625 0.011629087850451469421387 0.061649590730667114257812 -0.241896778345108032226562 -0.020187448710203170776367 -0.007463773246854543685913 -0.269871234893798828125000 0.122123785316944122314453 -0.175721898674964904785156 -0.046369425952434539794922 0.024800883606076240539551 0.032382197678089141845703 0.038317952305078506469727 0.042696308344602584838867 0.172430783510208129882812 -0.370015084743499755859375 -0.065645940601825714111328 -0.245658040046691894531250 -0.606505036354064941406250 -0.107804864645004272460938 0.018814578652381896972656 -0.120734311640262603759766 -0.061615515500307083129883 0.053322836756706237792969 -0.005659420974552631378174 0.073831617832183837890625 0.032301332801580429077148 0.103613935410976409912109 0.016507340595126152038574 -0.067366890609264373779297 0.003689351724460721015930 0.041151318699121475219727 -0.090773656964302062988281 -0.041195902973413467407227 -0.148109078407287597656250 -0.199202701449394226074219 -0.132415398955345153808594 0.050291102379560470581055 -0.074143707752227783203125 0.045208491384983062744141 -0.153102517127990722656250 -0.080965109169483184814453 -0.120110131800174713134766 -0.254487246274948120117188 -0.224883258342742919921875 -0.197240993380546569824219 -0.122874356806278228759766 0.003586250590160489082336 -0.008922435343265533447266 -0.078914232552051544189453 -0.106378167867660522460938 -0.112263292074203491210938 -0.164070263504981994628906 -0.186005741357803344726562 -0.110301584005355834960938 -0.083684749901294708251953 -0.072360336780548095703125 -0.078914232552051544189453 -0.030451083555817604064941 -0.056532904505729675292969 -0.077264606952667236328125 -0.063309721648693084716797 -0.079493828117847442626953 -0.060946751385927200317383 -0.047125615179538726806641 -0.082926817238330841064453 -0.067545227706432342529297 -0.111014932394027709960938 -0.063175968825817108154297 -0.087162330746650695800781 -0.172273769974708557128906 -0.122428514063358306884766 -0.093983724713325500488281 -0.053144499659538269042969 0.242716982960700988769531 -0.103881441056728363037109 0.103078924119472503662109 0.046412266790866851806641 0.112709134817123413085938 -0.072003662586212158203125 0.046100176870822906494141 -0.050915282219648361206055 0.038476258516311645507812 -0.085245199501514434814453 0.085200615227222442626953 0.115027524530887603759766 0.018781140446662902832031 0.049533169716596603393555 -0.056622073054313659667969 0.158006802201271057128906 0.015080642886459827423096 0.078156299889087677001953 0.182528167963027954101562 0.136963009834289550781250 0.022581953555345535278320 0.153548359870910644531250 0.075793325901031494140625 0.012795696966350078582764 -0.012004326097667217254639 0.151586651802062988281250 -0.037317067384719848632812 -0.062819294631481170654297 -0.043781794607639312744141 -0.136873826384544372558594 -0.053278252482414245605469 -0.145255684852600097656250 -0.119664289057254791259766 0.000166407451615668833256 -0.207584545016288757324219 -0.048106472939252853393555 -0.130453690886497497558594 -0.118237592279911041259766 -0.057380009442567825317383 -0.235940173268318176269531 -0.244143679738044738769531 -0.127511128783226013183594 -0.139103055000305175781250 -0.129294499754905700683594 -0.063265137374401092529297 -0.277492761611938476562500 -0.104773126542568206787109 -0.036090999841690063476562 -0.029916072264313697814941 0.086359806358814239501953 -0.142937302589416503906250 0.004374835640192031860352 -0.069016516208648681640625 -0.027283029630780220031738 -0.027682293206453323364258 -0.014253719709813594818115 -0.017035257071256637573242 -0.015251879580318927764893 0.009083252400159835815430 -0.005300227552652359008789 -0.031169198453426361083984 -0.014732835814356803894043 -0.012037805281579494476318 0.043785937130451202392578 0.003886168124154210090637 0.064467802643775939941406 0.061593104153871536254883 0.025313328951597213745117 -0.018871871754527091979980 -0.042934171855449676513672 -0.046660635620355606079102 0.032047577202320098876953 0.002899653743952512741089 -0.027895234525203704833984 0.030397288501262664794922 0.024115536361932754516602 -0.055258117616176605224609 0.024488182738423347473145 0.053581207990646362304688 -0.014506586827337741851807 -0.034283455461263656616211 0.002427191473543643951416 -0.020721793174743652343750 0.011685121804475784301758 0.015451511368155479431152 -0.000305686378851532936096 0.074156604707241058349609 0.001486426102928817272186 0.007499506231397390365601 0.045063581317663192749023 0.044131964445114135742188 0.058824874460697174072266 -0.022185761481523513793945 -0.060421928763389587402344 -0.026165090501308441162109 0.028906702995300292968750 0.035747423768043518066406 -0.002014618832617998123169 -0.001427368260920047760010 -0.013375339098274707794189 0.034150369465351104736328 -0.020868191495537757873535 -0.010134647600352764129639 0.005752726923674345016479 0.023742889985442161560059 0.022624950855970382690430 0.006621125619858503341675 0.033777721226215362548828 0.003842914709821343421936 0.016063716262578964233398 -0.040165942162275314331055 -0.056163117289543151855469 0.001227736356668174266815 -0.053900621831417083740234 -0.100614488124847412109375 -0.046687252819538116455078 -0.025300020352005958557129 -0.003633301006630063056946 -0.010254426859319210052490 0.011645196005702018737793 -0.022624950855970382690430 -0.001876540132798254489899 -0.050413716584444046020508 -0.054113559424877166748047 -0.050839599221944808959961 0.051052536815404891967773 0.059783108532428741455078 -0.013022655621170997619629 -0.004465100821107625961304 -0.014067396521568298339844 -0.035294923931360244750977 0.022252306342124938964844 0.013222288340330123901367 0.002919616876170039176941 0.019736943766474723815918 -0.014879233203828334808350 0.006325005088001489639282 0.035348158329725265502930 0.058718405663967132568359 0.056429293006658554077148 -0.033484928309917449951172 -0.023569876328110694885254 -0.016755772754549980163574 -0.013149089179933071136475 -0.021440468728542327880859 0.002219241578131914138794 -0.029758466407656669616699 0.048523865640163421630859 -0.016795698553323745727539 -0.011991224251687526702881 0.053421504795551300048828 0.098272144794464111328125 0.022065982222557067871094 0.021413851529359817504883 0.042055793106555938720703 -0.004731276538223028182983 0.082993648946285247802734 -0.001390769146382808685303 -0.054779000580310821533203 0.001097143744118511676788 -0.084218055009841918945312 0.044325508177280426025391 0.038061089813709259033203 0.015392119996249675750732 -0.078147046267986297607422 -0.083652138710021972656250 -0.026908526197075843811035 -0.006924872286617755889893 0.079032920300960540771484 -0.059480343014001846313477 -0.134906470775604248046875 -0.081247612833976745605469 -0.161989018321037292480469 -0.092637464404106140136719 -0.080867953598499298095703 -0.114278189837932586669922 0.058467909693717956542969 0.047109697014093399047852 -0.029091581702232360839844 0.004247465636581182479858 -0.136045455932617187500000 0.046318732202053070068359 -0.022795524448156356811523 -0.044926639646291732788086 0.065681479871273040771484 -0.064352668821811676025391 -0.177048936486244201660156 0.000534888065885752439499 -0.074540257453918457031250 -0.076248735189437866210938 0.014253134839236736297607 0.005528824403882026672363 -0.059353787451982498168945 0.055652085691690444946289 -0.136931344866752624511719 -0.083082646131515502929688 0.052931174635887145996094 0.180086225271224975585938 0.171733662486076354980469 0.177175492048263549804688 0.010590980760753154754639 -0.112063497304916381835938 0.072325564920902252197266 0.084474742412567138671875 -0.056284856051206588745117 -0.004421477671712636947632 -0.028664462268352508544922 -0.118834130465984344482422 0.012663301080465316772461 -0.100610367953777313232422 -0.024962760508060455322266 -0.084348186850547790527344 -0.085930109024047851562500 -0.022811343893408775329590 -0.019394388422369956970215 -0.103710934519767761230469 -0.065301820635795593261719 -0.001414833241142332553864 -0.060113109648227691650391 0.014348050579428672790527 -0.167304277420043945312500 0.050874676555395126342773 0.056316494941711425781250 -0.245261490345001220703125 0.000830510107334703207016 0.147308766841888427734375 0.004109047353267669677734 -0.067136853933334350585938 0.132501944899559020996094 -0.075173027813434600830078 -0.016894947737455368041992 -0.053247559815645217895508 -0.051665637642145156860352 -0.057803500443696975708008 -0.039358269423246383666992 0.171480551362037658691406 -0.051855467259883880615234 -0.122251085937023162841797 0.064352668821811676025391 -0.024867845699191093444824 -0.015407939441502094268799 -0.002147461753338575363159 -0.124275945127010345458984 -0.012774036265909671783447 -0.099661208689212799072266 -0.099471382796764373779297 -0.077640831470489501953125 -0.297654807567596435546875 -0.027098357677459716796875 -0.047647550702095031738281 -0.225772187113761901855469 0.044578619301319122314453 0.046603478491306304931641 0.236782386898994445800781 -0.049767326563596725463867 -0.075615964829921722412109 0.132755056023597717285156 -0.076944783329963684082031 0.005338993389159440994263 0.097699627280235290527344 -0.038693860173225402832031 0.106431841850280761718750 0.004813003819435834884644 0.081564001739025115966797 0.062137972563505172729492 0.144398018717765808105469 0.124782159924507141113281 0.067389957606792449951172 0.169582247734069824218750 
